#include "ap_int.h"
#include <cstdint>
#include "ap_fixed.h"

#define n_inputs 100
#define n_layer1 32
#define n_layer2 16
#define n_layer3 3

void float_to_fixed(float input[n_inputs], ap_fixed<32,24> output[n_inputs]);

void hwmm_layer1(ap_fixed<32,24> input[n_inputs], const ap_fixed<32,24> weights[n_inputs][n_layer1], ap_fixed<32,24> output[1][n_layer1]);
void hw_act_layer1(ap_fixed<32,24> input[1][n_layer1], ap_fixed<32,24> output[1][n_layer1]);
void hwmm_layer2(ap_fixed<32,24> input[1][n_layer1], const ap_fixed<32,24> weights[n_layer1][n_layer2], ap_fixed<32,24> output[1][n_layer2]);
void hw_act_layer2(ap_fixed<32,24> input[1][n_layer2], ap_fixed<32,24> output[1][n_layer2]);
void hwmm_layer3(ap_fixed<32,24> input[1][n_layer2], const ap_fixed<32,24> weights[n_layer2][n_layer3], ap_fixed<32,24> output[1][n_layer3]);
void hw_act_layer3(ap_fixed<32,24> input[1][n_layer3], ap_fixed<32,24> &pred);
int nn_inference(float input_img[n_inputs]);

namespace weights{

	const ap_fixed<32,24> layer3_weights[n_layer2][n_layer3] = {{-0.34380764, 0.4699512, -0.010722816},
			{0.61703265, 0.2560536, -1.3950095},
			{0.8046959, -0.86875033, 0.17497568},
			{0.7958019, -0.038910303, -1.2359679},
			{0.34126562, 0.3939731, -0.06781408},
			{1.3438938, -0.81263274, 0.06485732},
			{0.49085087, 0.8893175, -1.2600726},
			{0.36644325, -0.96020174, 0.54744816},
			{0.4970651, -0.2117315, -0.23269549},
			{0.07410123, 0.39564544, 0.052188933},
			{0.027432203, 0.015843213, -0.35286653},
			{-0.8170142, 0.58903396, 0.72697026},
			{0.86174643, 0.6671306, -0.9721381},
			{-0.11047119, -0.5080245, 0.51257557},
			{1.3757184, -0.96073747, -0.38066855},
			{-1.0844955, 0.14852864, 0.2433926}};

	const ap_fixed<32,24> layer2_weights[n_layer1][n_layer2] = {{-0.33184212, 0.53829664, 0.048444655, 0.15941226, -0.026027203, 0.26207983, -0.13205147, -0.21671107, -0.05026666, -0.3517691, -0.25568622, 0.06466244, 0.4300944, 0.22758743, 0.052351285, -0.15727802},
			{-0.27116457, -0.062166616, 0.3348416, 0.23050341, -0.28033066, 0.11226572, 0.15557486, -0.093792066, -0.18282738, -0.3314286, -0.25433365, -0.14077948, 0.17839167, -0.2601198, 0.17090566, -0.05947212},
			{0.2132177, 1.0711266, -0.024313048, 1.2820575, 0.11445323, 0.42076775, 1.1056322, -0.080131166, -0.24080037, -0.10103742, -0.3052375, -0.6994157, 1.2330765, 0.09937653, 0.49133614, -0.2951791},
			{0.26752612, 0.07874322, -0.044356436, 0.088920414, -0.19814827, 0.025527924, -0.1530953, 0.21258828, -0.28271946, 0.012639493, -0.28659603, 0.19600847, -0.10496934, 0.27696833, -0.23318046, -0.32950237},
			{0.08945626, -0.3087234, -0.22689797, 0.21444997, -0.26417062, 0.21620408, 0.025181144, 0.25012425, -0.17473552, -0.27967063, 0.34637216, 0.14572129, 0.049332798, -0.21581057, 0.081311464, -0.29223856},
			{0.068264246, 0.16866681, -0.07433963, -0.3475514, 0.17771623, 0.27597007, 0.24399301, -0.05577764, 0.17987677, -0.009842217, 0.278702, -0.061494708, -0.24197838, 0.1559318, 0.15444383, -0.269923},
			{0.22762057, -0.303627, -0.08689502, 0.16057111, 0.20601884, -0.22195834, 0.15956765, 0.20812646, -0.3097843, 0.20479108, -0.2735199, -0.024487106, 0.2812894, 0.07382661, -0.35045138, -0.28840205},
			{-0.14447476, 1.0810511, 0.048063815, 0.61569756, -0.11621757, 0.14399728, 0.9519284, -0.32006913, -0.025570482, -0.20372717, 0.10110295, 0.03505877, 1.0608718, 0.32387546, 0.5609574, -0.5497364},
			{0.12570998, 0.53665304, 0.26072288, 0.35949942, 0.045223653, -0.08921851, 0.4402958, 0.08705706, -0.2853118, -0.04986945, 0.012248129, 0.280804, 0.25832513, -0.27468932, 0.28809857, 0.04999129},
			{0.034002125, 0.82947266, 1.047707, 0.5551418, -0.15364785, 1.6553382, -0.09768816, 0.7293363, 0.049083203, 0.11495611, -0.16575074, -1.1253526, 0.8178433, -0.25507045, 1.0395098, -0.944984},
			{0.19234201, 0.7343686, -0.5911936, 0.1487765, -0.32412764, -0.3248999, 0.5402154, -0.6378612, 0.29132488, -0.012091478, 0.1835225, 0.015260685, 0.53627646, 0.059066355, -0.009636689, 0.15570784},
			{-0.24177212, -0.06384361, 0.21741177, -0.04699378, -0.319795, 0.22487293, -0.16876234, 0.4882703, -0.24732716, -0.26456323, -0.3041572, 0.28608915, 0.024607457, -0.19328696, 0.0998188, -0.24767332},
			{-0.30614156, 0.21766149, -0.4095578, -0.37722695, -0.34462625, 0.030167693, 0.17723879, -0.0012707142, -0.3691953, 0.045532882, -0.04253021, 0.46179935, 0.24493347, -0.05052936, -0.39171168, 0.48649907},
			{0.22143349, 0.2013159, 0.52097964, 0.59508055, 0.001021713, 0.3109081, -0.12507507, 0.19626471, -0.32756743, -0.2573499, -0.0917961, -0.05953791, 0.46162802, -0.010194153, 0.52300805, -0.36770192},
			{-0.114169404, -0.0035460591, 0.26576552, -0.23415053, -0.33103535, 0.08699784, -0.25567973, -0.04038459, 0.03994426, -0.07082254, -0.15217996, 0.18091103, 0.29667708, -0.10224378, 0.25699827, 0.045039386},
			{-0.010119051, -0.6071973, -0.27209583, -0.5017281, -0.013095796, -0.5941427, -0.24971779, 0.3352097, 0.29379332, -0.026622908, 0.2601013, 0.51279676, -0.2618979, -0.056031793, -0.08798302, 0.55300146},
			{-0.0202294, -0.20205885, 0.39247012, -0.30218032, 0.3527216, 0.06731227, -0.56361187, 0.47330767, 0.19464608, -0.19517028, -0.13852724, 0.21420358, -0.70770335, -0.35236654, 0.35996178, 0.2626482},
			{-0.32084396, -0.01499553, 0.055254363, -0.112203866, 0.2861633, -0.112042196, -0.28442132, 0.6164568, 0.12050462, -0.23217927, -0.18770571, -0.06551389, -0.2633745, 0.14413363, 0.20069401, 0.15710072},
			{0.15325657, -0.0049504573, 0.25028852, 0.46803778, -0.34172562, 0.678798, 0.19725426, 0.19007908, -0.35008404, -0.2681112, 0.08374107, -0.31518862, -0.23453899, -0.18297362, 0.21845774, -0.17098123},
			{0.00845474, 0.3315198, -0.7054575, 0.29841885, -0.2665816, 0.042884536, 0.8548752, -0.71870494, -0.23879912, -0.2236878, 0.32915077, 0.002003165, 0.5152168, -0.1780636, 0.03158482, 0.36096752},
			{-0.34405145, 0.23705415, 0.07379374, -0.27418992, -0.17930828, 0.2760793, 0.10620705, 0.29408726, 0.20633104, 0.14216259, 0.31283006, -0.1726328, 0.10559153, -0.116298914, 0.11097054, 0.026738426},
			{0.24405202, -0.0026395186, -0.22020958, 0.08680256, 0.15277162, 0.02718152, -0.038187403, 0.28907737, 0.23268965, 0.07666262, -0.15894672, 0.069057375, 0.19202064, 0.22143188, -0.26687887, 0.32792786},
			{-0.0253734, -0.04926241, -0.2848306, 0.4466528, -0.042421132, -0.1271979, 0.1841821, -0.5388929, -0.22717951, 0.33015147, 0.0025026798, 0.24661705, 0.47274655, -0.08171946, 0.08697949, 0.3550589},
			{0.026973128, -0.20261288, -0.102077216, 0.20815906, 0.02795583, 0.22651526, 0.3527852, 0.1991215, 0.06362775, -0.10912661, -0.11901596, -0.17091566, -0.12120734, 0.33851478, -0.04991123, -0.06663215},
			{-0.29892525, -0.46237963, -0.19322181, -0.6196442, 0.2820833, -0.69646454, -0.07910903, -0.35536626, 0.042368114, 0.03564288, 0.18031928, 0.71845156, -0.69609606, -0.11826128, -0.67563725, 0.75288826},
			{-0.12535442, -0.024417194, 0.40924197, 0.54979044, -0.013229817, 0.7953769, 0.08225631, 0.43905845, 0.010262354, -0.27847674, -0.33376586, -0.19891708, 0.20610002, -0.25882715, 0.62782484, -0.26180217},
			{-0.18752709, -0.15644927, -0.19158246, 0.07883906, 0.17828807, 0.1895341, 0.3072196, -0.17091465, 0.35126564, 0.27525637, -0.21847054, 0.28261182, 0.020014435, 0.037801772, -0.16058767, 0.21397129},
			{-0.3332332, 0.31063423, -0.35111156, 0.12488076, 0.26593694, -0.097685605, 0.21020815, 0.23259452, 0.31668696, 0.20813683, 0.100492656, 0.26336256, -0.019982755, -0.34451592, 0.1028136, -0.2148025},
			{0.15710667, -0.11760943, -0.29851583, -0.16796531, -0.07881376, -0.12950571, -0.32998782, 0.2523487, 0.18889704, 0.13680404, 0.31690434, 0.0006726682, -0.19967929, -0.26749095, 0.3120261, 0.020040333},
			{-0.10702442, -0.5032386, 0.30099407, 0.020917121, 0.20854136, -0.31109607, -0.22166857, 0.43684825, 0.26019132, 0.28859976, -0.021890134, 0.06760152, -0.50167346, 0.17313185, -0.031158019, 0.042578366},
			{0.2676603, 0.12137273, 0.32112467, 0.2869425, -0.30646658, 0.16689347, 0.32188487, 0.12855591, 0.018030062, 0.3166405, -0.22588013, 0.37109256, 0.31509292, -0.030662328, -0.30133215, 0.3545669},
			{0.14923146, -0.31641176, -0.47434568, -0.33104807, 0.2168366, -0.66174537, -0.29913732, -0.5130961, 0.1541513, -0.13687293, -0.33788505, 0.5488383, -0.38779327, -0.24171951, -0.4544632, 0.41683254}};

	const ap_fixed<32,24> layer1_weights[n_inputs][n_layer1] = {{-0.08919735, 0.14980836, 0.16211416, 0.040235847, 0.19305032, -0.056304798, -0.065909825, -0.031410124, 0.14864649, -0.24779828, 0.11197781, 0.13344774, 0.25662553, -0.057523727, -0.18217398, 0.086299926, 0.11595738, 0.10597263, -0.084518515, -0.06909186, -0.01052987, 0.05918625, -0.0714266, -0.09226667, -0.055817727, -0.01220693, -0.05677779, -0.041445985, 0.15566999, -0.20700403, 0.26786724, 0.14215319},
			{0.11530218, -0.052674685, -0.10172048, -0.03140147, -0.20061319, -0.09684375, -0.13895027, -0.13839614, 0.16786702, 0.058688894, -0.010507793, 0.21737692, 0.17619869, -0.14741561, 0.16168591, 0.06946051, 0.1700192, 0.005903072, -0.07087904, -0.11069448, -0.011831509, -0.19015554, -0.13523173, -0.19704312, 0.0052852747, 0.08239456, -0.17636943, -0.050828576, 0.20772353, 0.13127242, 0.24436681, -0.05696096},
			{0.18692356, -0.20645884, -0.0548784, 0.08769444, -0.0024422705, 0.118519574, 0.11779826, 0.14914992, -0.038664535, 0.009108741, 0.096009664, 0.012044323, 0.1887433, -0.057768144, -0.049645126, 0.22306727, 0.18499593, -0.08836634, -0.04124136, -0.043323074, -0.049625773, -0.14716722, 0.045969583, -0.18297654, 0.20814991, -0.18960361, -0.05297257, 0.080250084, -0.0045187175, 0.13467692, 0.07577183, 0.16789372},
			{0.0146094505, 0.10538216, 0.17133705, -0.11954986, 0.14438874, 0.20409176, 0.12912591, 0.0111895725, -0.004041016, -0.07161302, 0.20620723, 0.014593451, 0.23385191, -0.1060466, 0.1235978, -0.1693216, -0.11875016, 0.14649072, 0.18249458, -0.08434838, -0.017982256, -0.0046166326, 0.16072924, -0.14965667, -0.15737441, -0.032018676, -0.15243098, -0.001470238, -0.19095437, 0.14875105, -0.04981368, -0.09262052},
			{0.1777346, 0.087403834, 0.23328847, 0.08967474, 0.20324439, -0.19858263, -0.06965589, 0.05909241, 0.05301455, 0.02192031, -0.06112535, 0.050351787, 0.21566254, -0.15688786, 0.19556749, -0.06980678, 0.16497658, -0.14401121, -0.19675116, -0.086979985, -0.061992805, -0.13655303, 0.00800509, -0.11832291, 0.09619367, 0.18708263, 0.06827891, 0.16169289, 0.18162033, 0.105559446, 0.17453548, -0.116082504},
			{0.20957342, 0.13038337, -0.11398706, 0.08323577, -0.11100446, -0.19638622, 0.12656718, 0.08599697, 0.056689367, -0.081861235, -0.037248876, 0.23986614, 0.008750154, 0.044449553, -0.018691525, 0.09584285, -0.14831296, 0.054567587, 0.17216805, -0.035914972, 0.11382924, -0.034753423, 0.17122416, -0.06844802, 0.08791778, -0.16869827, -0.17170426, -0.13127255, 0.084172964, -0.1859261, 0.117024496, 0.12360877},
			{0.0014519515, -0.053481437, 0.13860796, -0.05638948, -0.00046108663, 0.14715919, 0.013639826, -0.06021311, 0.010054265, -0.11367348, 0.12766762, -0.0980924, 0.2284037, -0.13923079, -0.15671182, 0.09152719, 0.14803915, 0.108309016, -0.08282671, -0.14961548, -0.1949174, 0.097730525, 0.009820982, 0.11237797, -0.107369274, -0.03730286, 0.07653305, 0.1229184, -0.15061203, -0.10654789, 0.22439891, -0.028268214},
			{0.12880848, 0.087552704, -0.0023217215, 0.15492183, -0.1261724, -0.105100796, -0.06976091, -0.14093839, 0.1444873, 0.14695485, -0.11997653, 0.12221235, 0.12605906, 0.000773846, 0.08678383, -0.15597439, 0.19460459, 0.06546158, 0.16026904, -0.24557003, -0.10104758, -0.020302344, 0.08622256, -0.15335457, -0.10341897, 0.27127784, -0.10107513, 0.15299773, -0.06797093, 0.067391165, -0.14353034, -0.18794139},
			{0.082966246, -0.09196146, -0.03946497, -0.016474381, -0.12951356, 0.09447476, 0.17481232, -0.28215316, -0.0014472557, 0.020636465, -0.15038197, 0.23907833, 0.1773469, 0.064317025, 0.019691572, -0.073375985, -0.1330284, -0.095667325, -0.2256073, 0.06016655, -0.16607472, 0.10468603, 0.20620136, 0.012580678, 0.20522957, -0.14252354, -0.075347826, 0.0253506, 0.09433159, -0.023881182, 0.042244762, -0.032870457},
			{-0.10064919, -0.18775265, 0.02312971, 0.17699283, -0.060358673, 0.1967577, 0.19873048, -0.07413859, 0.027461907, 0.015465098, 0.20106536, 0.0031993124, 0.061933424, -0.14937986, -0.18079448, 0.19234315, -0.17250116, -0.15807398, 0.030018294, 0.15073606, 0.11200165, -0.010950586, 0.24743025, -0.17949244, -0.035706766, -0.042999286, 8.9764595e-05, 0.0395934, 0.061211735, -0.23759682, 0.30192333, 0.16262671},
			{0.095352605, -0.12525193, -0.07627695, -0.17508818, 0.022957832, -0.14015386, 0.10099537, 0.006546569, 0.08615934, -0.20524208, -0.12809965, -0.057960972, 0.07219315, -0.053082746, 0.10789156, -0.16842607, -0.030914458, 0.1293312, -0.20647515, 0.12097895, 0.05077944, 0.15903392, 0.052790515, 0.13805175, 0.0020925854, 0.20389919, 0.11458093, -0.16509363, -0.20694464, 0.20091103, 0.22039656, -0.01937025},
			{0.15660374, -0.11844577, 0.15971561, -0.19206136, 0.17932606, 0.062191695, 0.07147282, 0.113522656, 0.00863521, 0.11996941, 0.20543462, 0.1268225, -0.15001002, 0.13573772, -0.06512368, -0.056377728, 0.1134706, -0.10855388, 0.05539123, 0.11838581, -0.015006416, -0.007157339, -0.029462544, 0.021771729, 0.08304643, -0.06720691, -0.14328459, -0.10412458, -0.07067326, -0.07926072, 0.21423465, 0.140825},
			{-0.071915776, 0.01083035, 0.27475956, -0.0875981, -0.2066089, 0.11567822, -0.17955823, -0.142165, 0.23984277, -0.12103135, 0.26020947, -0.021752222, 0.09525398, 0.2156361, 0.10846165, -0.116520606, -0.19762392, 0.09728067, -0.061362624, 0.19751967, 0.09029633, 0.074707255, -0.070388265, -0.052325755, 0.10607369, -0.06936166, -0.02522336, 0.04728189, -0.06596477, 0.16416226, 0.201735, 0.1277894},
			{-0.116788894, 0.12050517, 0.27735758, -0.014172554, -0.08088581, 0.09596443, -0.19142894, -0.040775407, 0.24430795, 0.031480636, -0.011641299, 0.17525229, 0.2112495, -0.18126029, -0.009781763, 0.13113597, -0.1197537, -0.11984464, -0.050192036, 0.06078732, -0.0810671, -0.10807962, 0.2126842, 0.045437485, 0.20369093, 0.1722288, 0.064493924, 0.009720877, -0.030170903, 0.16027571, 0.19355217, 0.11156112},
			{-0.17096868, -0.18336678, 0.26280335, 0.03890124, -0.19240718, 0.061697304, 0.12311341, -0.16730298, 0.07181683, -0.23279409, 0.1324916, 0.12495491, 0.17066735, 0.16516747, -0.17259076, -0.051271856, 0.09287066, -0.123841666, 0.027581256, -0.17430717, 0.13117859, 0.15898299, 0.2243527, 0.14451048, 0.0037210837, 0.02224635, -0.16238359, 0.007264003, 0.0672386, 0.0739627, 0.15010008, 0.18196562},
			{-0.005817629, 0.1626787, 0.040911335, -0.11919303, 0.13841635, 0.03360957, 0.07825076, 0.21960361, 0.13520683, -0.044511482, 0.08478238, 0.2530699, -0.12535803, 0.093792774, 0.1762785, 0.096639335, 0.06941746, 0.30701223, 0.13398667, 0.084778935, -0.042129632, -0.018100994, -0.26293442, 0.12937373, 0.13357157, 0.10587141, 0.04531285, -0.17240553, -0.15059058, 0.09711886, 0.18377116, 0.07252219},
			{0.18922067, -0.15914008, 0.12590222, 0.14471227, -0.13354303, -0.019936934, -0.13047875, 0.1542766, -0.11535215, -0.23731849, 0.0748533, 0.26253086, -0.068204194, 0.069245316, 0.07049361, -0.073193066, 0.19898163, 0.26661128, 0.12003444, -0.054317538, -0.051451184, 0.0002247489, 0.019828897, 0.17779213, -0.15239272, -0.07125409, 0.07626277, -0.117673285, 0.12489453, -0.094383806, 0.08432271, -0.040749237},
			{-0.19408342, -0.15974644, -0.0736075, 0.052547216, -0.16711387, -0.17696354, -0.20962974, -0.13407241, -0.044269383, -0.18275692, -0.051709056, 0.13657835, -0.12531263, 0.1474268, -0.1669447, 0.01441294, 0.08503414, -0.04498112, 0.17154813, 0.14948556, 0.1134836, 0.09552613, 0.024469374, -0.05729519, 0.10441376, 0.05855169, 0.18873835, 0.012650982, -0.18750605, 0.18057904, -0.049369883, -0.1589807},
			{0.15888497, -0.051262543, 0.08832835, 0.07007024, 0.028488904, -0.20071667, -0.06879565, -0.25903228, 0.21279164, -0.023054391, 0.012994402, 0.069786966, 0.027551109, -0.06846457, 0.028517768, 0.22591376, 0.30150166, 0.32713816, 0.15832788, -0.043615244, 0.07727785, -0.0021046577, -0.13527, -0.10319285, 0.068634994, 0.18770473, 0.16693175, 0.17144743, -0.05125326, -0.037725914, 0.16072181, -0.20868659},
			{0.07986618, 0.115473926, 0.44752005, 0.20101413, 0.039754897, 0.039530724, 0.17960279, 0.11318024, -0.04021227, 0.27215096, 0.24874331, -0.043437712, 0.08098448, 0.23825346, -0.14351846, -0.21613215, 0.13037567, -0.013638018, 0.031232737, 0.10077473, 0.05905575, -0.028939988, 0.24321565, 0.025061876, -0.027682273, 0.0048323222, 0.14438945, 0.06335881, -0.10595313, -0.13645501, 0.024322417, -0.1979469},
			{-0.05473407, -0.10673933, 0.26454908, -0.010108709, -0.07431072, -0.04403007, 0.12363222, -0.20127016, 0.19076261, -0.23152785, -0.17949612, 0.15802069, -0.15146378, -0.04941317, -0.13330245, 0.22829384, 0.056341305, -0.02456885, 0.12872414, -0.056450386, -0.004099858, -0.18497987, -0.0006977319, -0.21300323, 0.1527411, 0.12739667, 0.196186, -0.20044081, -0.14382203, 0.04220378, 0.27006134, -0.20290841},
			{0.0783048, -0.07719682, 0.18214458, 0.052776217, -0.107452385, -0.06720887, -0.1386107, 0.1557883, 0.023307055, 0.106820196, -0.15782572, 0.1820403, 0.21652105, -0.13521843, -0.075417876, 0.105551384, 0.26263213, 0.07929365, 0.05505469, 0.07422691, 0.20357892, -0.0044078315, 0.11355939, 0.12576249, 0.18883997, 0.06133526, -0.121702306, -0.15960598, 0.0641408, 0.23229724, 0.27764368, -0.054534793},
			{-0.11830088, -0.013344686, 0.11774536, 0.03207721, -0.07806566, -0.035071924, -0.114484906, 0.088046275, 0.11883307, -0.2512154, 0.087311186, -0.02241364, 0.20907654, 0.1747508, 0.12641037, -0.13121186, -0.07793783, 0.22417508, -0.1367235, -0.06779182, -0.08954602, -0.21579629, -0.099205054, -0.073834285, -0.08792356, 0.10432486, -0.16636166, -0.19801109, -0.09915077, -0.03626913, 0.30019948, -0.07108625},
			{-0.12095286, 0.10963872, 0.001522805, -0.07973586, -0.07230209, -0.07343927, -0.0704508, 0.12705871, -0.04057625, -0.17572199, -0.1466624, 0.19722761, -0.12619187, -0.007879545, 0.18849242, 0.07039475, 0.15829757, 0.029588705, 0.108338326, 0.2072626, 0.20178428, 0.050092958, -0.115637675, 0.16644365, 0.14964569, 0.16458276, 0.14479005, 0.16075441, 0.1997824, -0.18202463, 0.064973146, -0.08602345},
			{-0.08101198, 0.09841953, -0.029999478, 0.07350439, -0.061285883, -0.08800495, 0.17937484, -0.069370694, -0.07859337, -0.0021583678, 0.10061387, 0.2029407, -0.045347534, 0.12166189, 0.19830292, 0.062471513, 0.004045704, 0.27878392, 0.06202436, 0.04772062, -0.06470485, 0.12075186, 0.056517195, -0.15232763, -0.09289452, 0.22316529, -0.15282446, -0.20479043, 0.11067137, -0.012290989, 0.26071995, -0.19349258},
			{0.22997013, 0.073978916, 0.07107585, 0.034231946, -0.0007417798, -0.16377783, -0.21933584, -0.17177196, 0.21030243, 0.2805402, -0.14758034, 0.025268106, -0.03184349, 0.02952217, -0.079126954, -0.20356786, 0.111327335, 0.24400352, 0.16882326, -0.00567793, 0.17567086, 0.048647642, -0.12151282, 0.035659686, 0.10340095, 0.13080056, 0.06023276, 0.09577799, 0.1050131, 0.12889707, -0.019370273, 0.04921249},
			{-0.09834438, -0.15611771, 0.10109101, 0.021979228, -0.18423975, 0.03431958, 0.021339085, 0.051160295, 0.077455424, 0.016217662, 0.21309935, 0.102863595, -0.11542507, -0.2022714, 0.06723839, 0.2043013, -0.12850615, 0.16011263, -0.0777455, -0.029382551, -0.18605024, 0.11367657, -0.09184535, 0.07870644, 0.016906695, -0.22840002, 0.1522063, -0.0220114, 0.1225439, -0.12676717, 0.25377098, 0.0076535367},
			{0.07132476, -0.16912766, 0.1432614, -0.053553775, -0.03294958, 0.095016986, 0.11065996, -0.09117978, 0.095998794, -0.1919015, -0.124022454, 0.1369165, -0.016585201, 0.10344763, -0.11735351, 0.20014714, 0.10318634, -0.057421293, -0.15002887, -0.17186786, 0.16941737, 0.13191237, -0.143179, 0.07940957, 0.07059785, -0.12402847, -0.15798126, -0.15862875, -0.107663944, -0.12165873, 0.17586808, 0.02327532},
			{-0.15977222, 0.06177071, -0.121767595, 0.06474224, 0.20810744, 0.05566269, -0.058159232, 0.011589729, 0.15377402, 0.015788078, 0.1255205, 0.08286471, 0.120468944, 0.033977844, 0.15892076, 0.06836808, 0.2490068, -0.049071345, 0.23813313, -0.16612442, -0.14444835, 0.045628507, -0.13625643, 0.069544464, 0.18979602, -0.14134078, -0.17653392, 0.14908141, -0.073300704, 0.1320529, -0.009865621, -0.1577366},
			{0.2004483, -0.06633382, 0.043659806, 0.05335313, -0.02787374, -0.17153469, -0.17037451, -0.029902328, 0.031214856, 0.0024859656, 0.1736074, -0.0151548935, -0.07724995, 0.021735623, -0.07039933, -0.22010042, -0.07188009, 0.14649682, 0.034728702, -0.13697404, -0.05195809, 0.12831339, 0.17378184, -0.026879951, -0.17582953, 0.1776456, -0.12926377, -0.018690825, 0.093700975, 0.0154257845, 0.33837628, 0.028027559},
			{0.2014902, -0.02009045, 0.072128676, 0.18853787, -0.14683062, -0.12940854, -0.118989706, -0.05604017, 0.2351084, -0.13901152, 0.13180268, 0.048668616, -0.033331573, -0.03883571, -0.19280101, -0.1511102, 0.22227983, -0.10053364, 0.0023179944, 0.2199565, -0.1977961, -0.18913865, 0.16845044, -0.05500236, -0.14498068, 0.2022409, -0.027439743, 0.016691893, 0.08835867, 0.22524066, 0.15274595, -0.18789086},
			{-0.10866528, -0.14309363, -0.20165147, -0.05223304, -0.039703444, -0.21099399, 0.021559117, -0.06572222, -0.17252827, 0.009108572, -0.023557173, 0.19619529, -0.025668006, 0.16125774, 0.20235601, 0.16004728, -0.0031063221, -0.1359751, 0.1282892, 0.07677946, -0.14817452, 0.19118126, 0.17609097, 0.07430014, 0.036986303, -0.040820338, 0.0922285, 0.039539248, -0.16396026, 0.10036827, 0.2275328, 0.029002748},
			{0.08678682, 0.15466838, 0.031616278, 0.027561694, -0.17080165, 0.05309102, 0.123976916, -0.12948406, 0.09479172, -0.059344396, -0.1926972, -0.06900469, -0.14259355, -0.017544769, -0.005351186, 0.086207815, 0.22908261, -0.09693486, 0.117618434, 0.08496311, 0.19856343, -0.10855307, -0.21319929, 0.061072856, -0.12172723, 0.023452, -0.19048536, -0.0467501, -0.09757455, 0.16520356, -0.037546236, -0.08048145},
			{0.009127372, 0.04031168, 0.20879641, -0.039242506, -0.18851063, -0.14860877, -0.19762467, -0.062461875, -0.13881588, 0.041136656, 0.023010964, 0.20091559, 0.008019474, -0.15141326, -0.09741352, -0.002925663, 0.1019641, 0.058167655, -0.09820344, 0.19306313, -0.08170355, -0.074349396, 0.17958827, 0.1955049, -0.073680714, 0.076599956, 0.058565706, -0.024562359, -0.011616766, 0.03754888, 0.27339998, 0.15536033},
			{-0.2601729, 0.07953566, 0.09210785, -0.10938112, 0.02385123, 0.1477187, -0.21228588, -0.03913086, -0.12661017, 0.046389002, 0.12280868, 0.23330112, 0.22138079, 0.108585306, -0.15858366, 0.13509648, 0.16116828, 0.21655992, 0.046727516, 0.010960114, -0.08732164, 0.09357801, 0.007416488, 0.14724317, 0.024069471, 0.08307678, 0.18036109, 0.11581728, -0.04651867, -0.037864845, -0.037044406, -0.043718513},
			{0.15382925, 0.052552827, -0.38162673, -0.057674795, 0.090280205, 0.07539168, -0.025622524, -0.1817317, -0.18740779, 0.57040834, -0.43678993, 0.49776784, -0.2860067, 0.15809326, -0.0012740791, -0.11912564, 0.1814157, 0.39388695, 0.010591881, -0.27361783, -0.111912556, 0.12824526, -0.31719664, -0.20043465, -0.21432978, 0.15980276, 0.011616513, 0.18414855, 0.073417276, 0.09158876, -0.18565561, -0.25351772},
			{-0.06108455, -0.22884978, 0.0956875, -0.01276122, -0.20243903, -0.045744956, 0.018246025, -0.2300851, 0.08165165, -0.43283477, 0.040835183, -0.33144116, 0.00970874, 0.006743587, 0.037080854, 0.31027114, -0.10604661, 0.0040495675, -0.029455397, 0.10740731, 0.001439681, -0.12799582, 0.23191956, -0.070205554, 0.2874479, -0.36452618, 0.10106364, 0.0873045, -0.07148884, 0.12835851, 0.22583103, 0.36388192},
			{-0.062142495, -0.022652024, 0.19282334, -0.16092545, 0.15487584, 0.042546988, -0.14905553, -0.053859293, 0.008630746, -0.05814732, 0.15134604, -0.1412324, 0.13461742, -0.06281079, 0.09662181, 0.018996993, -0.14746465, 0.115265556, -0.21807514, 0.00927349, 0.06311795, -0.029085109, -0.089273386, 0.02351442, -0.052163582, -0.26372826, 0.09704602, 0.07197276, 0.057173908, 0.11376363, 0.04994605, 0.22024699},
			{0.14379467, -0.19977029, -0.20882142, -0.19559112, -0.20615244, 0.08574006, 0.012839778, 0.2177218, 0.2358322, 0.085280746, 0.13637759, -0.153295, 0.06752593, 0.07405725, 0.1160686, -0.07047813, 0.14781162, 0.20930319, 0.19474715, 0.018250298, 0.09917858, 0.027249949, 0.017418351, -0.19530648, 0.09690935, 0.06352545, -0.031486362, -0.15822195, -0.17871778, 0.19292837, -0.1201977, -0.15181069},
			{-0.09623729, 0.031754065, -0.0062358696, 0.09253806, -0.11799342, -0.13230336, 0.2003149, -0.095840976, 0.23202829, 0.04054004, 0.12673198, -0.15885338, 0.041410025, -0.09932582, -0.043546364, -0.19165048, -0.20062447, -0.08832705, 0.2376884, -0.07604487, 0.15261714, -0.19657375, 0.1749343, 0.06024176, 0.06322379, 0.0074654156, 0.10807973, 0.033296496, 0.049944967, -0.13389723, -0.08388253, 0.16159344},
			{-0.09041291, 0.19593357, 0.038555406, -0.08143769, 0.10919756, 0.098341584, -0.113008745, 0.14285316, 0.01681249, 0.022341445, -0.15254521, 0.1248049, 0.20618702, 0.17232585, 0.0966163, -0.08594383, 0.20658506, -0.06340414, -0.020253124, -0.071488954, -0.12434635, 0.11906029, 0.07827817, 0.031558484, -0.047998127, 0.0028890944, -0.18354987, 0.1645321, -0.18322994, -0.120515645, 0.0043622144, -0.1592977},
			{0.040808517, -0.07900277, 0.2306404, -0.1710949, -0.15639447, -0.16190827, 0.1887649, 0.16941436, 0.07843843, -0.2501081, -0.03461177, 0.16740723, 0.21025689, 0.11429273, -0.020353854, 0.20214903, 0.04586687, 0.2702776, -0.033321086, -0.022240616, -0.21889022, -0.07404476, 0.08147883, -0.060609177, -0.19073415, 0.08419219, 0.09626138, -0.10308173, -0.06320913, 0.15688498, -0.08636658, -0.062590756},
			{-0.15060157, 0.07947431, 0.0043909065, -0.21229933, 0.1479927, -0.13246343, -0.023342973, -0.18713294, -0.021749357, -0.21426521, -0.19584578, -0.03804919, 0.07958774, -0.018096777, 0.18853036, 0.12028918, 0.013913937, 0.23180759, 0.1014199, 0.16978735, 0.078181885, -0.14793012, -0.057232585, 0.2074737, 0.0049623945, 0.227302, -0.12758544, 0.030333504, -0.077510476, -0.10166446, 0.10746931, -0.18199867},
			{-0.0739406, -0.06391635, 0.011342195, -0.17543612, -0.15923236, 0.14263323, 0.0042780926, -0.07394754, 0.06420387, -0.04219027, -0.0185809, -0.15017854, 0.112905085, 0.06292625, -0.18521631, 0.1541275, -0.06531485, -0.15292308, -0.067973964, 0.21870874, 0.08403024, -0.14514396, 0.07690718, -0.024376169, 0.17201269, 0.016411839, 0.000814721, -0.101648405, 0.19795924, 0.07856445, 0.123298876, -0.03263054},
			{0.03867714, -0.029310327, -0.11234934, 0.20380506, -0.0199067, 0.0054640323, -0.077507146, 0.14144452, -0.2027808, 0.20342629, 0.08925269, 0.04593516, -0.021742946, -0.03768576, -0.074353874, 0.25796625, 0.1715225, 0.103263885, -0.30908167, -0.15947576, 0.020062597, -0.108233094, 0.15294714, -0.20637152, 0.121770516, -0.056693442, 0.1601341, 0.13945946, 0.058006763, -0.08468528, 0.21130456, 0.17679982},
			{-0.35127732, -0.0348585, -0.48039213, -0.18614744, -0.1477105, 0.18577173, -0.13668232, -0.30982718, -0.3171227, 0.8739798, -0.26404947, 0.13788973, 0.08156492, -0.04295439, 0.09366396, 0.23258932, 0.49091756, 0.28260112, -0.083605215, -0.18605086, -0.038567144, -0.109065905, -0.16994545, -0.005019963, 0.04345504, 0.19881597, -0.08940316, -0.09827388, 0.12138304, 0.25655183, -0.09482039, 0.07724641},
			{-0.015617801, -0.14681558, -0.11891945, 0.038094997, 0.04109636, 0.19282243, 0.18040074, -0.1488314, -0.041756727, -0.3184934, 0.14849547, -0.28549144, 0.23892707, -0.55005765, -0.032503948, 0.53937864, 0.01614716, -0.39992598, -0.21809417, 0.37926468, 0.020072551, -0.0061852196, 0.10808425, -0.14000513, 0.5777448, -0.51884264, 0.108965635, -0.11534218, -0.116185464, 0.21955502, 0.25451186, 0.67117894},
			{-0.09718461, 0.078242004, -0.64123607, -0.14579904, -0.14709082, 0.13718888, 0.010843665, 0.012430373, -0.24324644, -0.23671459, 0.43884146, -0.45542696, 0.39141032, -0.63558745, -0.21146663, 0.24734367, -0.1963605, -0.21789862, -0.61395836, 0.28220943, -0.07980945, -0.10481835, 0.22184052, -0.18812507, 0.3954469, -0.63923615, 0.011299029, 0.08040151, 0.015412167, -0.29995078, 0.040966228, 0.4000578},
			{-0.26015216, -0.016211132, -0.55988973, -0.11534721, 0.03971091, 0.004737854, 0.011504848, -0.29211283, -0.3422661, 0.00991028, 0.023927264, -0.25680718, 0.16883032, -0.21178333, -0.15560633, 0.29072776, -0.24339387, -0.13821018, -0.18384603, 0.3556382, 0.067064606, 0.12970245, 0.38961074, -0.048567712, 0.44583318, -0.40209872, -0.16228832, 0.15403175, 0.12291619, 0.03932637, 0.23801371, 0.55695623},
			{-0.08692218, -0.111998454, -0.020009596, 0.011134222, -0.17940485, 0.067577094, -0.11320603, -0.30093077, -0.105431035, 0.1710867, -0.07734593, 0.015983295, -0.07928167, -0.06545661, -0.0052615255, 0.27131405, 0.09802307, 0.19203334, -0.12549677, -0.305768, -0.21568532, -0.13059911, -0.21126917, 0.007433325, 0.3346131, -0.008279903, -0.1195245, -0.080546215, 0.16616744, 0.12232219, -0.06423398, 0.32582104},
			{0.06306094, -0.041273355, 0.23430546, 0.00067432225, -0.049937055, -0.10028882, 0.19885477, -0.06615218, -0.014142338, -0.22898711, 0.10672444, 0.17828618, 0.1944645, 0.21710376, 0.05819109, 0.023567278, 0.10585847, 0.09242103, -0.14687769, 0.01094159, -0.17940526, 0.08801175, 0.25378495, -0.084943354, 0.04689111, 0.14321196, -0.09594247, -0.029403955, -0.15378378, -0.10470369, 0.24631971, 0.0803245},
			{-0.111956015, -0.20677689, 0.19776364, 0.0609259, 0.06827158, -0.08126293, -0.050302017, -0.04444495, 0.19059011, -0.18180698, 0.16752268, 0.22832823, -0.06740323, 0.03974362, -0.17561871, 0.10098464, 0.1474103, -0.028411413, 0.014500414, 0.13458575, 0.18525563, -0.023313189, -0.07878985, 0.0934951, 0.11229996, 0.19316214, -0.06513481, -0.079767525, -0.12360181, -0.07189763, 0.049332127, -0.08572743},
			{0.015248505, -0.056977242, -0.062023453, -0.035292625, 0.196975, 0.10956767, -0.043005545, 0.1283717, 0.3147457, -0.06772686, -0.031394176, 0.057211753, -0.029433837, -0.11995832, -0.019183263, -0.0108690355, 0.031568214, -0.10359825, 0.029962951, -0.13517058, -0.041895818, 0.028739553, 0.13900869, -0.007233098, -0.2229757, 0.15987478, -0.02216883, -0.021468073, -0.19310711, -0.047147255, 0.1160132, 0.113953374},
			{0.12384223, -0.18139298, 0.11116975, -0.007174641, -0.07114664, 0.048641056, 0.051547136, 0.26385495, 0.14015763, 0.074054115, 0.17417203, 0.05689167, -0.021779258, 0.22073512, 0.034254104, 0.024232816, 0.017797459, 0.15102237, 0.1566821, -0.0014753243, -0.03153126, -0.05041989, 0.025461415, -0.031196564, -0.22070041, 0.20750457, -0.0049855113, 0.037110716, -0.019623458, -0.13357697, 0.23020217, 0.07833839},
			{0.10313323, 0.005686084, -0.25244215, -0.17806968, 0.18495682, -0.12656571, 0.012162156, 0.29939649, 0.006739015, 0.09301388, 0.16226505, 0.01677622, 0.17981723, -0.06679834, 0.0659177, 0.11090804, -0.23601994, 0.09340933, 0.06876728, 0.3251383, 0.09267453, -0.16329882, 0.06606735, -0.15141751, -0.06821693, -0.07332605, 0.11842638, -0.040989876, 0.14141458, -0.17955174, 0.31869307, 0.17452276},
			{0.18112333, -0.10391639, -0.3909385, -0.14134112, -0.08400969, -0.07052341, 0.11504906, -0.14243023, -0.13842656, 0.5430454, -0.29713243, 0.09688276, -0.3094862, -0.020640021, -0.048598215, -0.10265251, 0.24175079, 0.12675975, -0.007931197, -0.020359838, 0.2054134, 0.031886607, 0.07943238, -0.10661165, -0.22536407, 0.045279924, -0.17316931, -0.19792092, -0.09050289, -0.02475206, 0.19305174, 0.06769559},
			{0.01887885, -0.041393895, 0.048574377, 0.12031105, -0.169621, -0.09366473, -0.21609288, 0.07386921, -0.20263569, 0.110537164, -0.033895954, 0.0059210323, -0.20707357, 0.027778203, 0.070347875, 0.15916097, 0.13303071, 0.33394793, 0.178294, -0.27858537, -0.06805591, 0.007971225, -0.060852032, 0.19924739, -0.13856031, -0.095015846, 0.19223705, 0.122139394, -0.11630446, 0.23349053, 0.019260291, 0.120585464},
			{-0.0076979254, 0.02619122, -0.24823755, 0.18821454, 0.096591234, -0.16000473, -0.20027447, 0.25498736, 0.07773071, 0.31136164, 0.24916129, -0.14614742, 0.080213636, 0.13553205, 0.025092065, 0.031258326, -0.29410398, -0.23125438, -0.10361244, -0.038203217, 0.002237987, 0.0510748, -0.08120594, -0.14766394, 0.17860089, 0.09495913, -0.010320425, 0.061175823, 0.11369112, 0.12246127, 0.021339605, 0.20596756},
			{-0.1363262, 0.06495467, -0.14117527, -0.04440017, 5.3822994e-05, 0.16079694, 0.18035349, -0.18090002, -0.23433709, -0.14370485, -0.071308084, 0.3036438, 0.17643484, -0.04427645, -0.18500562, 0.10024177, 0.023681117, 0.023734659, 0.14524864, -0.33329615, -0.055162165, 0.17187098, -0.1769475, 0.01598218, 0.23737608, 0.012282604, -0.033279017, 0.12386891, 0.15961033, 0.3512874, -0.2218951, -0.13063376},
			{-0.24985756, 0.14415628, 0.24347667, 0.10650918, -0.097477004, 0.036574647, 0.17978585, -0.27712116, 0.038065203, 0.18452889, -0.59438163, 0.6877652, -0.6104992, 0.38815096, -0.010701254, -0.06612571, 0.6709928, 0.8401316, 0.4022201, -0.7439178, -0.14808023, 0.054008733, -0.6207865, 0.19786963, -0.18860492, 0.7290186, 0.07063207, -0.16175857, -0.15952642, 0.5152922, -0.44114444, -0.3634135},
			{0.19265778, -0.14203048, 0.18679129, -0.07828514, -0.08255693, -0.18785241, -0.0346054, -0.054469764, 0.18142974, -0.16196072, -0.09161146, 0.10828697, 0.20230637, 0.0138355, 0.0024824291, 0.026663918, -0.15082063, -0.18772596, -0.111018114, -0.07985045, -0.19251753, 0.08228904, 0.209126, -0.20719534, 0.0371224, -0.06356352, 0.031500384, -0.09161655, 0.020110026, -0.06659884, 0.10938954, -0.013962348},
			{0.122772075, -0.022183087, 0.27937782, -0.08149584, -0.05091214, -0.08259496, -0.020265557, 0.16904518, 0.12998413, -0.065228455, -0.08820454, -0.07267033, -0.108119994, -0.08823811, -0.016458824, 0.1165174, -0.25135887, -0.17085305, -0.153528, 0.20437476, -0.008144763, 0.11240295, -0.0849931, -0.083624735, 0.042781934, -0.08861909, -0.17721505, -0.025277495, 0.00927569, 0.028765356, -0.030621914, -0.12149847},
			{0.010863353, -0.039185323, 0.42817566, 0.029700711, 0.04100427, -0.15073353, -0.19648924, 0.27683213, 0.2130316, 0.09289638, 0.093497224, 0.17310704, -0.043628152, 0.21923086, -0.16997519, -0.27064288, 0.03975711, -0.12733431, -0.016823024, 0.10613715, -0.17515922, -0.17638576, 0.19422065, -0.08753045, -0.19496422, 0.015959546, -0.19960012, -0.17092182, -0.099806994, -0.09508656, 0.14306754, -0.088260226},
			{0.34333718, -0.09745421, 0.022154728, 0.10270396, 0.05926931, -0.02401109, -0.21152012, 0.36098552, 0.3699549, 0.31004828, 0.31864047, -0.16998178, -0.24707888, 0.26572648, -0.08300242, -0.18383873, -0.15291354, -0.2096754, -0.02481985, 0.09520788, -0.07453211, -0.036077905, 0.19549425, 0.1769759, -0.13478109, 0.09018441, -0.16962206, -0.09178261, -0.13444254, -0.3099476, 0.21714973, -0.1423331},
			{0.32895863, 0.09877106, -0.12778494, 0.09107956, 0.14037877, 0.2057037, 0.034904312, 0.44021186, 0.3673931, 0.5077483, 0.3624048, -0.19242193, 0.0045964997, 0.28304127, 0.052533895, -0.29144028, -0.25885236, -0.38753814, 0.27378744, 0.5480435, 0.12220801, 0.05324495, 0.03322145, -0.17693864, -0.29238638, 0.339536, -0.11079194, 0.18762094, 0.16688493, -0.27156478, 0.3373403, -0.23205076},
			{0.42898133, -0.053403094, 0.004592974, -0.13905713, 0.07148966, 0.19547728, -0.2091619, 0.5696033, 0.5166389, 0.6993428, 0.5792561, -0.26077378, 0.1794428, 0.18814018, 0.06522855, -0.23822853, -0.45083976, -0.31508708, -0.07046764, 0.50856745, -0.14990884, -0.21724273, 0.30316475, 0.19968924, -0.19065131, -0.052986685, 0.06281838, -0.107971676, 0.10223159, -0.44211897, 0.45652708, -0.08001395},
			{0.24624866, 0.13842675, 0.052183744, 0.14275092, 0.12953791, 0.17756319, 0.11824228, 0.18396525, 0.11793129, 0.4631444, -0.0366731, -0.0831235, -0.19370636, 0.19340442, -0.20852529, -0.26399052, -0.3126881, -0.208603, 0.11456449, 0.4216631, 0.10037028, -0.14825201, 0.3014345, 0.086663514, 0.09965377, 0.24337935, -0.053667486, 0.032572, 0.079337955, 0.012572762, 0.008753583, 0.14044487},
			{0.05301516, 0.17081366, -0.3749194, 0.18142167, -0.16240488, -0.1737404, 0.07935607, -0.06765471, -0.051522426, -0.16685973, 0.18182057, -0.2642828, 0.3101985, -0.030896282, -0.10459197, 0.11040884, 0.075271085, 0.045418736, -0.17267717, 0.32206178, 0.020084677, 0.04996344, 0.24672559, -0.10996232, 0.1924971, -0.053186856, 0.052308112, -0.005728349, -0.027212694, 0.13789056, 0.037710533, 0.19218901},
			{-0.4684084, 0.18917148, -0.14663176, 0.19464922, -0.10611192, 0.07827413, -0.21649286, -0.27421573, -0.3168124, -0.5744913, -0.2595674, -0.04624405, 0.29062793, -0.21802959, 0.053665817, 0.44902536, 0.49158078, 0.25943002, -0.28492787, -0.13075309, -0.011781876, -0.18684885, -0.34895146, 0.20172372, 0.32692316, -0.31620157, 0.13216257, 0.20345646, 0.0582079, 0.49768692, -0.05506963, 0.49738032},
			{-0.1663629, 0.10543979, 0.42076352, 0.028389424, 0.089542955, 0.076971024, -0.017304506, -0.6421372, -0.10248247, -0.16587655, -0.7100722, 0.47242, -0.36393276, 0.3058243, -0.055115253, 0.0057172175, 0.6354133, 0.3846807, 0.19558434, -0.5527061, 0.049955495, -0.17510346, -0.28947467, 0.043747246, 0.021193456, 0.2100651, 0.0061616898, -0.022349477, 0.10163304, 0.29090968, -0.4209429, -0.11472118},
			{-0.029289883, 0.10092891, -0.082509786, -0.08899778, -0.030716628, -0.20429935, -0.20776285, -0.21037872, -0.065783106, -0.29115838, 0.22846219, 0.16448298, 0.22704673, 0.026138952, -0.15930927, -0.07241405, -0.18909383, 0.008021924, -0.055774253, 0.20149334, 0.06627067, 0.10502683, 0.15568455, -0.19110514, 0.0819596, 0.14658658, 0.062324464, 0.19464058, -0.16267408, 0.2032919, 0.2676052, 0.1585044},
			{-0.08240723, 0.17658433, 0.14532042, -0.012780696, -0.111883834, 0.027675256, -0.090397164, 0.15611587, 0.048398506, -0.1426163, 0.2118711, 0.06905236, -0.12576224, -0.011892455, 0.17342809, -0.17997658, -0.0026049626, 0.04935606, -0.0010627365, -0.004343805, -0.01682344, 0.039080314, -0.10658629, -0.013274983, -0.1848712, -0.111081034, 0.16173819, 0.1977613, -0.17074777, -0.18835731, -0.033143293, -0.038532846},
			{0.22671825, 0.03075687, 0.13998233, -0.034450665, -0.1467228, 0.18562254, -0.062081855, 0.15749468, -0.096640475, 0.116826765, -4.570989e-05, 0.09727335, -0.19249715, 0.2300592, 0.10202184, -0.1481498, 0.12172113, 0.21684499, 0.01755502, 0.208624, 0.019791692, -0.19855629, 0.048826776, 0.101145595, -0.22932667, 0.038633257, -0.055787295, -0.1971064, 0.013085231, 0.1254202, 0.028863862, -0.18416709},
			{0.44778588, -0.12878223, 0.2584224, -0.14042205, 0.090726346, -0.18687671, -0.19530913, 0.20538883, 0.28607082, 0.09321958, -0.017428141, -0.0830537, 0.086802706, 0.0015858088, -0.17907913, -0.07677269, -0.4048574, 0.0009245989, -0.010813443, 0.22900768, -0.122675546, 0.10665683, 0.09047797, 0.007485524, -0.09006249, 0.2531832, -0.1493436, 0.12132195, -0.05785601, -0.42817348, 0.11450849, -0.26201478},
			{0.5144072, -0.058151383, 0.07265324, 0.15218377, 0.15344954, -0.15360318, -0.14114295, 0.65656066, 0.59002626, 0.2432382, 0.17103463, 0.032906104, -0.029350145, 0.3784381, -0.039422497, -0.183714, -0.37121546, -0.20675732, 0.45624942, 0.21257429, -0.14803353, -0.20554192, 0.053729303, -0.06888868, -0.3462877, 0.29949334, -0.16244163, -0.06860763, 0.0678772, -0.3434472, 0.45230678, -0.1865653},
			{0.19106328, 0.034551695, -0.6227092, -0.028584972, -0.20799282, -0.08997958, -0.1354814, 0.6117876, 0.19256823, 0.7548347, 0.06413074, -0.011815861, -0.1892922, 0.39490286, -0.19592077, -0.40058592, -0.16818437, -0.1648062, 0.34590006, 0.05135824, -0.10246851, -0.040396128, 0.035373084, 0.17354566, -0.40812728, 0.12273112, -0.12967509, -0.16443762, -0.07471061, -0.17720106, 0.1317111, -0.35835722},
			{-0.08546592, -0.15664423, -0.7584245, -0.10461821, 0.14345884, 0.13843185, -0.0071363547, -0.33265877, -0.44769162, 0.21956486, -0.14090656, 0.01971651, 0.10581541, -0.049736887, 0.101332396, 0.42695138, 0.38936272, 0.055719007, -0.07062773, -0.37545797, 0.045562137, -0.094037086, -0.2618762, 0.06410435, 0.21860395, 0.089616925, 0.19049212, 0.14150465, -0.1498551, 0.22589912, 0.10826105, -0.0738461},
			{-0.18631463, -0.16706379, -0.4859851, -0.117454864, 0.0407286, 0.01965788, -0.1799749, -0.2756143, -0.35519922, -0.1654484, -0.5648067, 0.20251314, 0.19605272, -0.21333863, 0.18733105, 0.5782186, 0.56637913, 0.3742376, 0.091833234, -0.41151756, 0.027001498, 0.0054197703, -0.32345837, -0.06473777, 0.2302042, -0.31540915, -0.20236172, -0.20836964, -0.14378802, 0.2645011, 0.05368921, 0.2824974},
			{-0.23104963, 0.01636416, -0.044924382, -0.05428773, -0.089598455, 0.19919682, -0.18778595, -0.1816653, -0.017833412, -0.23524502, -0.26744294, 0.12494093, 0.11948728, -0.031492013, -0.12466941, 0.32663676, 0.25347632, 0.35892478, -0.15071645, -0.22759536, -0.111774005, 0.010644041, -0.06823211, -0.026819155, 0.33738115, -0.13201958, -0.20880836, -0.19025347, -0.18857685, 0.335495, -0.072434545, 0.46129343},
			{-0.29844236, -0.076826185, 0.34449443, -0.1563228, 0.063963056, -0.14266257, -0.15215546, -0.4150537, 0.13954034, -0.49191457, -0.41041568, 0.0783942, 0.13464291, -0.064643584, -0.20254903, -0.02929012, 0.20120728, 0.2941973, 0.07367605, -0.2871566, 0.15594792, 0.13653007, -0.30197808, -0.095576994, 0.036402564, -0.17618243, -0.03612271, 0.12816212, 0.046357274, 0.38795826, -0.06626378, -0.04600835},
			{-0.18586351, 0.12566677, 0.011745469, -0.090188146, 0.20837829, -0.19366692, 0.011305566, 0.12560506, 0.11861678, -0.22215651, -0.090370685, 0.2016704, 0.25631168, 0.18993518, -0.0852457, 0.09171133, 0.1351754, 0.18749642, -0.015753139, -0.08107996, -0.027464034, -0.13282534, 0.17777027, 0.024130449, 0.24901006, -0.07059196, 0.19992316, 0.020088926, -0.21308142, 0.13704048, 0.12947166, -0.04992173},
			{0.10769267, -0.031422738, 0.20682265, -0.18418704, 0.09778133, 0.040715843, 0.12204196, -0.013301821, -0.086121574, -0.06647643, -0.13323249, -0.10811935, -0.07456401, -0.16969343, -0.1720799, 0.13463418, 0.07352396, -0.0031763962, -0.1472655, -0.096836485, 0.081233546, -0.08307637, 0.08528384, -0.04526207, 0.285759, 0.105723605, -0.21251725, 0.20028949, -0.19974422, -0.11022366, 0.17215551, 0.07988317},
			{0.06978256, 0.09049407, 0.03203683, 0.03263493, -0.12665924, -0.06892696, -0.019112652, 0.10035105, 0.12545688, -0.048266787, 0.20141158, 0.19123024, 0.07140744, 0.091496736, -0.12593374, -0.0048186565, 0.21557759, 0.15729655, 0.052919224, 0.24984512, 0.12966438, -0.106105626, -0.15700257, 0.04956007, 0.17626128, -0.12913053, 0.0209499, 0.060028166, -0.17928185, 0.1234403, -0.105972394, 0.18678193},
			{0.095088564, 0.19223495, 0.005795478, 0.13108006, -0.04921265, -0.1091474, 0.08153996, 0.12611517, 0.092611484, 0.11005248, -0.23520572, 0.24407245, 0.17745826, -0.06260665, 0.15738618, -0.029446578, 0.2729177, -0.053296957, 0.21593082, 0.008341285, -0.13752781, 0.15995127, -0.08434195, -0.11305163, 0.1634194, 0.03790418, -0.20437625, 0.036560312, 0.09877533, 0.120572135, -0.04784306, -0.24225298},
			{-0.085800126, 0.060566135, -0.36573344, 0.2079364, -0.16610253, 0.18237668, 0.05544147, 0.047815967, 0.30704695, 0.069199346, 0.023578357, 0.0122057, -0.2331298, 0.06746183, 0.028975919, 0.023959221, 0.13211632, 0.17301674, 0.19720115, -0.08504913, -0.17658202, -0.13368994, -0.16606413, 0.098783255, -0.10275314, 0.16393976, 0.12264252, -0.008608133, -0.06334479, -0.026698615, 0.26207837, -0.2377323},
			{-0.2668937, -0.13076782, -0.7673143, 0.107426405, -0.20523773, 0.11628991, -0.055765882, 0.185392, -0.060739413, 0.5126727, -0.10262579, 0.12549481, 0.10012961, -0.27090114, -0.038703248, 0.0114277145, 0.2070007, 0.1305555, 0.005319287, -0.23073688, -0.16516532, -0.22548601, -0.061738472, 0.0020791888, 0.25925764, -0.11926468, -0.17826182, -0.041262895, -0.1600294, 0.2624525, -0.0946437, 0.13725278},
			{-0.29141366, 0.10485462, -0.67652124, -0.19020283, -0.14382532, -0.14628378, 0.1652703, -0.2816879, -0.09629888, 0.1376691, -0.15739037, 0.15878205, -0.15333948, -0.056705214, -0.13568866, 0.4227577, 0.1323068, 0.44298297, -0.020513497, -0.3727958, 0.029389346, -0.068429776, -0.16317259, 0.20305753, 0.29501328, 0.05642274, -0.1545914, -0.08548033, 0.11135173, 0.21250501, 0.14356549, 0.0034789904},
			{-0.2544995, -0.031520255, -0.26462844, 0.17959216, -0.15469468, 0.104320884, 0.06514518, -0.06054807, -0.18168335, 0.050706215, -0.22806078, 0.2957864, -0.24221711, 0.07923134, -0.14931442, 0.22928134, 0.38240132, 0.36714926, -0.033799145, -0.5471446, 0.20427324, -0.1470958, -0.2531911, -0.080627084, 0.11165616, 0.06364917, -0.13468835, -0.034313172, -0.014501482, 0.42334726, -0.03802322, 0.051112425},
			{-0.19777095, 0.17932896, 0.015921706, -0.16882642, -0.105098605, -0.06818244, 0.1048525, -0.29187518, 0.12059154, 0.08003751, 0.23979066, 0.015968239, 0.34474736, -0.063000925, -0.13149032, 0.3504053, -0.10721366, -0.07492857, -0.18559596, 0.36499533, 0.13300733, -0.13068037, 0.061066553, -0.046182975, 0.52624893, -0.3842246, 0.009643763, 0.17451501, -0.01764375, 0.03996728, 0.33255658, 0.40511912},
			{0.060642105, -0.061022386, 0.19965264, 0.0024811178, 0.025612786, 0.08584514, -0.19914767, -0.042988826, -0.1505009, -0.43813238, 0.07133627, 0.25028917, 0.015861252, 0.07477874, 0.18537861, 0.3661406, -0.14040464, 0.0869163, -0.11471407, -0.21233165, 0.091918156, -0.1397425, -0.17022836, -0.11137792, 0.3023721, 0.07596004, 0.18089172, 0.0984894, -0.1511481, 0.046003137, -0.02741773, 0.30570698},
			{-0.029954532, 0.047940098, 0.07323373, -0.07995993, 0.19670403, 0.16870347, 0.11935072, -0.0033099973, 0.056533426, -0.14184071, 0.059452582, 0.048601944, 0.20485528, 0.17157775, 0.113866955, 0.25755492, 0.082641296, -0.12695582, -0.06019999, -0.020173516, -0.08795285, -0.015051169, 0.087304816, -0.041030392, 0.022247467, 0.1498792, 0.031518072, -0.18394747, -0.058500037, 0.18403728, 0.04540963, -0.010260683},
			{-0.15190323, -0.034823153, -0.12307779, -0.06338404, 0.11731961, -0.00021785498, 0.13535236, -0.100486934, 0.09299677, -0.293724, -0.09475767, 0.21765026, 0.23612247, -0.053266734, 0.16673335, 0.1528664, 0.038507923, 0.13120355, -0.018521752, 0.115051396, 0.026697103, -0.008445627, -0.06413506, -0.14026594, -0.069770694, 0.14542815, -0.12398873, -0.13077879, -0.11064961, 0.18229881, 0.031726494, 0.12545158},
			{-0.20723478, -0.037545472, 0.110454, 0.052369148, -0.12147992, -0.18026054, -0.16141152, 0.09518462, 0.1222838, -0.058599185, 0.22796983, -0.069852695, 0.13757142, 0.010207757, 0.20930824, 0.07260003, -0.105715245, 0.030972846, 0.010572134, 0.09522757, -0.18428779, 0.026444186, 0.19038709, 0.069913745, -0.05739973, -0.23361021, 0.20444402, -0.18778694, 0.0016566813, -0.0033347337, 0.31209657, -0.033458475},
			{0.058358002, 0.1558655, -0.11220236, 0.07615036, -0.01564309, 0.092953056, 0.1851567, -0.07244682, 0.04305281, 0.037372597, 0.0033141694, 0.09818057, 0.21126848, -0.041134976, -0.09183156, 0.20289432, -0.11370492, 0.18509664, 0.08352835, -0.074627936, -0.2117393, 0.11632896, 0.03031354, -0.023766086, -0.01811152, -0.027279392, -0.14861345, 0.005317837, 0.0026827604, -0.05355689, 0.0939079, -0.016673245},
			{0.115095764, 0.15384012, -0.16070236, -0.012026012, 0.10808188, 0.14301413, 0.13184422, 0.008234294, 0.16687551, -0.055601824, -0.14970939, 0.19591685, 0.048726946, 0.07071332, 0.05196017, -0.08499284, -0.051624402, 0.14894678, 0.07383085, 0.025982395, 0.15533021, 0.15605572, 0.0014399783, -0.12942907, -0.11445962, -0.12743862, 0.11314607, 0.08516097, 0.14607581, -0.030381495, 0.036969475, 0.13463776},
			{0.15121505, 0.11735658, -0.14717709, -0.13400865, -0.033866003, -0.03419809, -0.06544106, 0.1850899, 0.12106034, -0.031966586, 0.058018927, 0.059109956, 0.03947498, -0.067415535, -0.078517795, 0.25063846, 0.19799387, 0.18817069, 0.13962908, -0.02484592, 0.019837039, 0.030253047, 0.16978592, -0.10903969, -0.12804188, 0.09877495, -0.09324395, 0.13813815, 0.045800626, 0.16695549, 0.13056034, 0.16392246},
			{0.19456649, -0.10868095, -0.30219966, 0.1718477, -0.1077465, 0.033714682, 0.104734294, -0.13829629, -0.14501098, 0.14801274, -0.30322668, 0.1809537, 0.023447353, -0.11302234, -0.078051776, 0.24320197, 0.19564678, 0.18925317, -0.035661895, -0.2511158, 0.14559606, 0.18418232, 0.0404064, 0.060312003, -0.012101512, -0.037287325, -0.12934515, 0.12187061, -0.13918237, -0.014815606, 0.07288692, -0.13202834},
			{0.09678448, 0.19554344, -0.08378036, -0.11749767, -0.041040808, 0.073681176, 0.08582185, -0.10538437, 0.12986028, 0.0987125, -0.19122781, 0.32919076, -0.109464295, -0.10630564, -0.103967056, -0.08552784, 0.019971441, 0.12865792, 0.28649375, -0.08528438, -0.16187094, -0.089298114, -0.19129102, -0.11410998, -0.24091586, -0.0910625, 0.015482917, -0.12300333, -0.048851043, 0.08367656, 0.035666224, 0.09703573},
			{0.21886519, -0.19990934, -0.069083326, -0.008414, 0.07993305, 0.02744621, 0.17128466, 0.13738449, 0.22733837, 0.37016383, 0.07281896, 0.041188158, 0.21524218, 0.15045248, -0.14131215, 0.1782959, -0.21851115, -0.2724567, 0.017411293, 0.18913577, 0.105334535, -0.05069505, 0.12048476, -0.14064397, 0.13820864, -0.052915316, 0.12924674, -0.008721948, -0.19816816, -0.22040562, 0.01889495, 0.26357004},
			{-0.131285, -0.20480253, -0.28833783, -0.09510691, 0.08607885, 0.05544144, -0.0777031, -0.14864026, -0.13458319, -0.25691712, -0.13629362, 0.14019245, 0.1851271, -0.042265307, -0.10135343, 0.17084453, 0.06381345, 0.40402672, 0.15767282, -0.17960721, 0.19974712, -0.17530556, 0.060432587, -0.007720515, 0.028333459, -0.12542553, -0.19670281, 0.17612347, 0.100248724, 0.22713856, -0.15940343, 0.16861852}}
;

}
