{{-0.33184212, 0.53829664, 0.048444655, 0.15941226, -0.026027203, 0.26207983, -0.13205147, -0.21671107, -0.05026666, -0.3517691, -0.25568622, 0.06466244, 0.4300944, 0.22758743, 0.052351285, -0.15727802}, 
{-0.27116457, -0.062166616, 0.3348416, 0.23050341, -0.28033066, 0.11226572, 0.15557486, -0.093792066, -0.18282738, -0.3314286, -0.25433365, -0.14077948, 0.17839167, -0.2601198, 0.17090566, -0.05947212}, 
{0.2132177, 1.0711266, -0.024313048, 1.2820575, 0.11445323, 0.42076775, 1.1056322, -0.080131166, -0.24080037, -0.10103742, -0.3052375, -0.6994157, 1.2330765, 0.09937653, 0.49133614, -0.2951791}, 
{0.26752612, 0.07874322, -0.044356436, 0.088920414, -0.19814827, 0.025527924, -0.1530953, 0.21258828, -0.28271946, 0.012639493, -0.28659603, 0.19600847, -0.10496934, 0.27696833, -0.23318046, -0.32950237}, 
{0.08945626, -0.3087234, -0.22689797, 0.21444997, -0.26417062, 0.21620408, 0.025181144, 0.25012425, -0.17473552, -0.27967063, 0.34637216, 0.14572129, 0.049332798, -0.21581057, 0.081311464, -0.29223856}, 
{0.068264246, 0.16866681, -0.07433963, -0.3475514, 0.17771623, 0.27597007, 0.24399301, -0.05577764, 0.17987677, -0.009842217, 0.278702, -0.061494708, -0.24197838, 0.1559318, 0.15444383, -0.269923}, 
{0.22762057, -0.303627, -0.08689502, 0.16057111, 0.20601884, -0.22195834, 0.15956765, 0.20812646, -0.3097843, 0.20479108, -0.2735199, -0.024487106, 0.2812894, 0.07382661, -0.35045138, -0.28840205}, 
{-0.14447476, 1.0810511, 0.048063815, 0.61569756, -0.11621757, 0.14399728, 0.9519284, -0.32006913, -0.025570482, -0.20372717, 0.10110295, 0.03505877, 1.0608718, 0.32387546, 0.5609574, -0.5497364}, 
{0.12570998, 0.53665304, 0.26072288, 0.35949942, 0.045223653, -0.08921851, 0.4402958, 0.08705706, -0.2853118, -0.04986945, 0.012248129, 0.280804, 0.25832513, -0.27468932, 0.28809857, 0.04999129}, 
{0.034002125, 0.82947266, 1.047707, 0.5551418, -0.15364785, 1.6553382, -0.09768816, 0.7293363, 0.049083203, 0.11495611, -0.16575074, -1.1253526, 0.8178433, -0.25507045, 1.0395098, -0.944984}, 
{0.19234201, 0.7343686, -0.5911936, 0.1487765, -0.32412764, -0.3248999, 0.5402154, -0.6378612, 0.29132488, -0.012091478, 0.1835225, 0.015260685, 0.53627646, 0.059066355, -0.009636689, 0.15570784}, 
{-0.24177212, -0.06384361, 0.21741177, -0.04699378, -0.319795, 0.22487293, -0.16876234, 0.4882703, -0.24732716, -0.26456323, -0.3041572, 0.28608915, 0.024607457, -0.19328696, 0.0998188, -0.24767332}, 
{-0.30614156, 0.21766149, -0.4095578, -0.37722695, -0.34462625, 0.030167693, 0.17723879, -0.0012707142, -0.3691953, 0.045532882, -0.04253021, 0.46179935, 0.24493347, -0.05052936, -0.39171168, 0.48649907}, 
{0.22143349, 0.2013159, 0.52097964, 0.59508055, 0.001021713, 0.3109081, -0.12507507, 0.19626471, -0.32756743, -0.2573499, -0.0917961, -0.05953791, 0.46162802, -0.010194153, 0.52300805, -0.36770192}, 
{-0.114169404, -0.0035460591, 0.26576552, -0.23415053, -0.33103535, 0.08699784, -0.25567973, -0.04038459, 0.03994426, -0.07082254, -0.15217996, 0.18091103, 0.29667708, -0.10224378, 0.25699827, 0.045039386}, 
{-0.010119051, -0.6071973, -0.27209583, -0.5017281, -0.013095796, -0.5941427, -0.24971779, 0.3352097, 0.29379332, -0.026622908, 0.2601013, 0.51279676, -0.2618979, -0.056031793, -0.08798302, 0.55300146}, 
{-0.0202294, -0.20205885, 0.39247012, -0.30218032, 0.3527216, 0.06731227, -0.56361187, 0.47330767, 0.19464608, -0.19517028, -0.13852724, 0.21420358, -0.70770335, -0.35236654, 0.35996178, 0.2626482}, 
{-0.32084396, -0.01499553, 0.055254363, -0.112203866, 0.2861633, -0.112042196, -0.28442132, 0.6164568, 0.12050462, -0.23217927, -0.18770571, -0.06551389, -0.2633745, 0.14413363, 0.20069401, 0.15710072}, 
{0.15325657, -0.0049504573, 0.25028852, 0.46803778, -0.34172562, 0.678798, 0.19725426, 0.19007908, -0.35008404, -0.2681112, 0.08374107, -0.31518862, -0.23453899, -0.18297362, 0.21845774, -0.17098123}, 
{0.00845474, 0.3315198, -0.7054575, 0.29841885, -0.2665816, 0.042884536, 0.8548752, -0.71870494, -0.23879912, -0.2236878, 0.32915077, 0.002003165, 0.5152168, -0.1780636, 0.03158482, 0.36096752}, 
{-0.34405145, 0.23705415, 0.07379374, -0.27418992, -0.17930828, 0.2760793, 0.10620705, 0.29408726, 0.20633104, 0.14216259, 0.31283006, -0.1726328, 0.10559153, -0.116298914, 0.11097054, 0.026738426}, 
{0.24405202, -0.0026395186, -0.22020958, 0.08680256, 0.15277162, 0.02718152, -0.038187403, 0.28907737, 0.23268965, 0.07666262, -0.15894672, 0.069057375, 0.19202064, 0.22143188, -0.26687887, 0.32792786}, 
{-0.0253734, -0.04926241, -0.2848306, 0.4466528, -0.042421132, -0.1271979, 0.1841821, -0.5388929, -0.22717951, 0.33015147, 0.0025026798, 0.24661705, 0.47274655, -0.08171946, 0.08697949, 0.3550589}, 
{0.026973128, -0.20261288, -0.102077216, 0.20815906, 0.02795583, 0.22651526, 0.3527852, 0.1991215, 0.06362775, -0.10912661, -0.11901596, -0.17091566, -0.12120734, 0.33851478, -0.04991123, -0.06663215}, 
{-0.29892525, -0.46237963, -0.19322181, -0.6196442, 0.2820833, -0.69646454, -0.07910903, -0.35536626, 0.042368114, 0.03564288, 0.18031928, 0.71845156, -0.69609606, -0.11826128, -0.67563725, 0.75288826}, 
{-0.12535442, -0.024417194, 0.40924197, 0.54979044, -0.013229817, 0.7953769, 0.08225631, 0.43905845, 0.010262354, -0.27847674, -0.33376586, -0.19891708, 0.20610002, -0.25882715, 0.62782484, -0.26180217}, 
{-0.18752709, -0.15644927, -0.19158246, 0.07883906, 0.17828807, 0.1895341, 0.3072196, -0.17091465, 0.35126564, 0.27525637, -0.21847054, 0.28261182, 0.020014435, 0.037801772, -0.16058767, 0.21397129}, 
{-0.3332332, 0.31063423, -0.35111156, 0.12488076, 0.26593694, -0.097685605, 0.21020815, 0.23259452, 0.31668696, 0.20813683, 0.100492656, 0.26336256, -0.019982755, -0.34451592, 0.1028136, -0.2148025}, 
{0.15710667, -0.11760943, -0.29851583, -0.16796531, -0.07881376, -0.12950571, -0.32998782, 0.2523487, 0.18889704, 0.13680404, 0.31690434, 0.0006726682, -0.19967929, -0.26749095, 0.3120261, 0.020040333}, 
{-0.10702442, -0.5032386, 0.30099407, 0.020917121, 0.20854136, -0.31109607, -0.22166857, 0.43684825, 0.26019132, 0.28859976, -0.021890134, 0.06760152, -0.50167346, 0.17313185, -0.031158019, 0.042578366}, 
{0.2676603, 0.12137273, 0.32112467, 0.2869425, -0.30646658, 0.16689347, 0.32188487, 0.12855591, 0.018030062, 0.3166405, -0.22588013, 0.37109256, 0.31509292, -0.030662328, -0.30133215, 0.3545669}, 
{0.14923146, -0.31641176, -0.47434568, -0.33104807, 0.2168366, -0.66174537, -0.29913732, -0.5130961, 0.1541513, -0.13687293, -0.33788505, 0.5488383, -0.38779327, -0.24171951, -0.4544632, 0.41683254}}