{{-0.010027273, 0.04314846, 0.17091909, 0.005236581, 0.07233396, -0.013953033, 0.05708952, 0.17056137, -0.059127465, -0.29919276, -0.06897418, 0.18471141, 0.040061645, -0.124686606, 0.094050825, -0.18539737, 0.09292974, -0.10993233, 0.25607416, 0.09528452, 0.20266333, -0.033947945, -0.018744174, 0.16630319, 0.18595336, -0.062213596, -0.0033841175, -0.18970202, 0.0014554695, 0.23168316, 0.14490266, 0.13782874}, 
{-0.036503967, 0.2370793, 0.2204324, -0.010603389, 0.13594228, 0.19497328, 0.0957553, 0.14460716, -0.15190208, -0.35195363, 0.20875579, 0.17858113, -0.023047566, -0.21863085, 0.05967282, -0.14397845, -0.03631814, -0.080532864, 0.094279885, -0.065890856, 0.11473176, 0.18549517, 0.16642888, 0.25029385, 0.10549494, -0.032849457, 0.07368657, 0.19488235, 0.2393094, -0.053032942, 0.2017948, -0.106467895}, 
{-0.0698409, 0.06264199, 0.07035351, 0.20255157, -0.15096399, 0.18011893, 0.10884313, -0.17333263, 0.19997868, -0.2387308, -0.14935224, -0.1110167, -0.13359144, -0.16822687, -0.070588626, 0.20423707, 0.062192954, 0.23156126, 0.26579142, 0.006285476, -0.052802, -0.07379377, 0.15992247, -0.08960052, -0.17638722, -0.044552274, -0.08985656, -0.13325204, -0.041164238, 0.15232559, -0.16041815, -0.14868686}, 
{0.065717675, -0.08830899, 0.22253765, 0.027350524, 0.08169548, 0.18100089, 0.015390754, 0.11870444, 0.00063058804, -0.32574865, 0.011555359, -0.0045954487, -0.0018766111, -0.005691472, 0.16701707, -0.06894632, 0.076741934, 0.008034775, -0.1579088, 0.041718617, 0.37287077, -0.10625466, -0.25059092, -0.029257271, -0.1652901, 0.12477688, -0.22145805, 0.21185839, -0.14182863, 0.10740896, -0.1591802, -0.1256131}, 
{0.34626856, 0.2544191, 0.070170745, 0.15976407, 0.17463455, 0.1965242, 0.19302385, 0.0020747627, 0.18944684, -0.007323404, 0.03872353, -0.08531137, -0.10198407, 0.009712524, -0.02582338, 0.07100004, -0.22739242, -0.12587893, -0.07816679, -0.061651155, 0.045373723, 0.19931075, 0.05969077, 0.18788192, 0.14023347, 0.0352651, -0.007902347, 0.057729524, 0.022943407, 0.09052224, -0.015185943, 0.08052805}, 
{-0.1056188, -0.05156421, -0.030731823, 0.13052462, -0.12973829, -0.014221539, -0.11606612, -0.21062557, -0.031314615, 0.1474709, -0.17551069, 0.025144001, 0.100100204, 0.30958343, -0.08462755, 0.1695844, -0.26149055, 0.17573689, 0.21905711, 0.08792545, -0.24866691, -0.14340816, 0.15048626, -0.039715126, -0.038458895, -0.019107081, 0.12067632, -0.15946296, 0.3429462, 0.07418179, -0.13274032, 0.056818753}, 
{-0.12955877, 0.09562189, -0.19625808, -0.06852309, 0.21959129, -0.17003334, -0.052203525, -0.33386672, 0.026506262, 0.09679991, 0.090105295, 0.02075288, 0.11096396, 0.34328052, -0.07424039, 0.15346843, -0.25903922, -0.02887694, 0.18423325, 0.18804654, -0.24351466, 0.045337558, 0.24597283, 0.26092494, 0.19695269, 0.37734416, -0.17001924, -0.23316617, 0.16592012, 0.011304774, 0.06745561, -0.032344073}, 
{0.22946626, -0.34085706, 0.0049695494, 0.038813565, 0.077869006, 0.07061363, -0.18687472, 0.14593959, 0.16652872, -0.1705239, 0.013734341, -0.16037361, -0.21673752, -0.04401797, -0.08884341, -0.011327133, 0.07956773, 0.27923656, -0.07067947, -0.19419894, 0.07428514, 0.13994327, 0.090808615, 0.09358118, 0.22420609, 0.10267638, -0.10486537, 0.17506868, 0.027052768, -0.098618105, -0.0042931456, -0.18384825}, 
{-0.06857137, -0.38482183, 0.12760782, -0.008527803, 0.050929174, 0.08362233, -0.052079167, 0.18787938, -0.22896586, -0.4318488, 0.18944663, 0.09110671, -0.15178007, -0.21943049, -0.005396048, -0.09217106, -0.042253252, 0.22401014, 0.31268987, 0.07430874, 0.29320678, -0.035728455, -0.13357113, -0.08577244, -0.0041350494, -0.04177871, 0.07991377, -0.081744015, -0.17916326, 0.079606056, -0.10753252, -0.091789424}, 
{0.40447137, -0.095295064, 0.15485382, -0.091920875, -0.23995157, 0.15674424, 0.0068803984, 0.12462092, 0.08124061, -0.49223462, -0.16781929, -0.051866114, -0.2079401, 0.061388027, 0.28589126, 0.027052164, -0.0068925377, -0.056062903, -0.005338461, 0.0074552605, 0.30289355, -0.04217118, -0.052333597, 0.20514645, -0.24562885, 0.25685236, -0.20802175, -0.052832913, -0.13508889, 0.16806254, 0.046614137, -0.084312946}, 
{0.22365826, -0.12960516, 0.2536094, -0.016798247, -0.20546235, -0.03142485, -0.20599405, 0.25098848, 0.10985872, -0.33790433, 0.037933856, 0.12875445, 0.19699599, 0.031112159, 0.05136503, 0.20398042, -0.10251115, -0.14638232, -0.11020544, 0.099146396, 0.20239511, -0.069927156, -0.18003817, 0.112878054, 0.038326655, -0.08426207, -0.14891061, -0.1370545, 0.2237011, 0.0062705814, 0.043514743, 0.04089135}, 
{-0.24357456, 0.18730663, 0.11646762, -0.14578669, 0.03303807, 0.14974129, -0.024443252, 0.030718185, -0.25078517, -0.26118594, 0.06490576, -0.15594596, 0.08732392, -0.30358306, 0.23251924, -0.09824801, 0.13992015, -0.035451762, 0.04654671, -0.1707663, 0.3089346, 0.040129364, 0.111009516, -0.018262671, -0.18969198, -0.07539237, 0.05532341, 0.025607971, 0.0151397055, -0.049212918, -0.17720199, -0.10211259}, 
{-0.13256975, 0.052388974, -0.035688348, 0.013502553, -0.23957479, 0.09402271, -0.17674121, 0.12549967, 0.0047812187, 0.11458792, -0.17311914, 0.01413668, -0.17266427, -0.10360049, 0.19551206, -0.07208118, 0.02089501, 0.034191374, -0.05607385, -0.121515565, 0.14796321, 0.07239857, -0.006168238, 0.15104268, -0.18745457, -0.11565056, -0.029894354, 0.087006494, 0.16900839, 0.17056598, 0.12685035, 0.010068551}, 
{-0.32073832, 0.17083505, -0.024059672, 0.0011601392, -0.08712652, -0.13634796, 0.073166706, 0.18750061, 0.060142554, -0.27725664, 0.018615544, 0.08497121, 0.10794209, -0.08450744, 0.1128954, 0.1712487, 0.04536518, 0.25114152, -0.094572246, 0.121483475, -0.06675847, -0.062078997, -0.0102424845, -0.123911396, 0.21041316, 0.12948895, -0.22353427, 0.13656838, -0.116014466, -0.13009231, 0.15071593, -0.21202663}, 
{0.30058226, 0.07881871, 0.1661624, -0.073219106, -0.2468396, 0.043152582, 0.18808295, 0.12216776, 0.006413699, 0.09139425, 0.07963431, -0.1753327, -0.04037571, -0.13705546, 0.23829882, -0.11521896, -0.0450992, 0.060509153, 0.21537794, -0.049446184, 0.024651553, 0.023611456, 0.13178404, -0.051937353, 0.31079626, -0.13680172, -0.16923895, 0.20159781, 0.25686592, -0.015011015, 0.09049441, 0.14466429}, 
{0.108857304, -0.22229785, 0.038519006, -0.20714009, 0.033985596, -0.101482034, 0.0058733933, -0.20528182, 0.2691331, 0.23793036, -0.13567087, -0.006575389, -0.1103678, 0.2920417, -0.08150813, -0.034943268, -0.31914124, -0.068192795, 0.09471393, -0.16865982, 0.13037603, -0.096167244, 0.2249304, 0.09091231, 0.29288474, -0.0033766194, -0.21205398, 0.01816626, 0.12688752, 0.16928177, 0.1460944, 0.019631088}, 
{-0.17324103, -0.16698433, -0.11210831, -0.0030968585, -0.06793708, 0.10053346, 0.036993984, -0.08269677, 0.23059203, -0.07531739, 0.018985331, 0.08029419, -0.014751241, 0.12216533, -0.22356261, -0.05937901, 0.07109446, -0.033775765, 0.0062614535, -0.09326821, -0.09185821, -0.19207129, 0.24627401, 0.33518633, 0.33759427, -0.12236165, -0.15328972, 0.13776322, -0.043882396, 0.008753834, -0.1431024, 0.109969884}, 
{0.14745213, -0.06458782, 0.023495862, 0.014229632, -0.10120987, 0.15782999, -0.17753415, 0.06497394, 0.26139784, -0.106169865, 0.16597545, -0.05825974, -0.111860834, 0.07067852, -0.1973335, 0.1712265, 0.0024614679, 0.109770745, 0.05555929, -0.14706987, 0.058731113, -0.16851029, -0.06530414, 0.19755325, 0.25918075, -0.10648279, -0.17359176, 0.14615719, 0.26450253, 0.11686299, 0.06455322, 0.03239125}, 
{0.18600956, -0.015970038, 0.12088662, 0.07981213, -0.071213685, 0.008578077, -0.17993905, 0.11670579, 0.17746182, -0.60375845, 0.0057075024, -0.078706205, -0.11756947, -0.08480151, 0.02247158, -0.18687397, -0.19438317, 0.1462682, 0.011557818, -0.13177456, -0.19699843, 0.18421647, 0.28521487, 0.21335179, 0.34708637, 0.3059414, -0.1874567, -0.050722588, 0.023116075, 0.0012227661, -0.006949502, -0.11830964}, 
{0.085961655, 0.22941756, -0.0052577024, 0.08101082, -0.0110850455, 0.10761247, 0.095882244, -0.098595805, 0.012351967, -0.41914812, -0.1481258, 0.016598659, -0.15451007, 0.20617987, -0.07368511, -0.14172834, 0.009142504, -0.02118779, -0.006078546, 0.18063368, -0.15920244, -0.044545963, 0.3159462, 0.37250945, 0.08004691, 0.35863432, -0.15835822, -0.20067364, 0.10486411, 0.26652062, 0.050769154, 0.016256422}, 
{0.34080786, -0.2786144, 0.18052848, -0.20418909, -0.14837418, 0.20549235, -0.18516102, 0.27762583, -0.20646036, -0.25727895, -0.11131971, 0.04227193, 0.15113601, 0.05961305, 0.22025836, 0.041740447, 0.31713507, -0.15337655, 0.022333382, -0.17607675, 0.26307106, -0.19079268, -0.28797215, -0.11022727, -0.35307524, -0.05162637, -0.12593089, -0.10361811, 0.0907568, -0.102352105, -0.042261682, 0.0011431873}, 
{0.1287362, -0.23232803, 0.0015881694, 0.047756545, -0.07426899, 0.20188162, -0.08713913, 0.08577943, -0.18665977, -0.048050087, -0.1864354, -0.20358133, 0.030597813, -0.3331316, 0.44675958, -0.14498976, 0.23876287, 0.25018278, -0.051594645, 0.18683133, 0.22063152, 0.05247128, -0.22865346, -0.31413066, -0.17140992, 0.009755528, -0.008415711, 0.13308889, -0.19279927, -0.06752973, -0.21070397, -0.101535656}, 
{-0.27083924, 0.28286704, 0.122246265, -0.21923907, -0.19777863, 0.19719614, 0.13020535, -0.112331755, -0.122463204, 0.15608174, -0.08589043, 0.18575257, -0.1199005, -0.09996435, 0.31306386, -0.09129392, -0.000651959, 0.10818815, 0.21781702, -0.007982806, 0.08686626, -0.0870198, -0.046963934, -0.07371484, 0.0448553, -0.10161277, 0.01837918, 0.020014534, 0.16093504, -0.12915218, -0.13794914, -0.10892237}, 
{-0.34898567, 0.47725853, 0.2614688, 0.19753937, -0.083312154, -0.031821154, 0.07234234, 0.09258764, 0.08458263, 0.119143814, -0.19159043, 0.10723684, -0.028363358, -0.3502969, 0.24390483, -0.13140097, 0.13409148, 0.19651419, -0.024907771, -0.039566413, 0.05656342, 0.19784975, 0.15509512, -0.12234069, 0.17865041, -0.091290794, 0.00814116, 0.068078086, -0.06269323, -0.091487885, -0.15507162, 0.033041373}, 
{-0.03943711, 0.1572228, 0.060290694, 0.1216289, 0.011155894, 0.1181807, -0.18928312, 0.15579575, -0.22766174, -0.15864737, -0.048660472, 0.13510244, 0.07410927, -0.03138444, 0.11999382, 0.005810946, -0.040351786, 0.16431671, 0.21067397, -0.18675089, 0.13361318, 0.098850876, -0.013378932, 0.024217298, 0.31181166, -0.2500104, -0.10256413, 0.11846684, -0.21405683, -0.20906898, -0.13498284, -0.13927224}, 
{0.07511763, -0.39309758, 0.2078857, -0.0967675, -0.08122514, 0.07288808, 0.061086405, 0.07160518, 0.16317345, -0.10999873, -0.13283268, -0.17512374, 0.10292104, -0.056956943, -0.13254052, -0.15151016, -0.10683837, -0.030710902, -0.017202117, 0.03714375, 0.03400827, -0.19352815, -0.032385256, -0.003890864, 0.36541286, -0.10158477, -0.19589362, 0.060778312, 0.31605303, 0.23881856, 0.19641283, -0.07904364}, 
{-0.11657902, -0.19550087, 0.14586006, -0.12331005, -0.0071854484, 0.24976687, 0.1121523, 0.017009212, 0.37627918, 0.06751547, -0.1018376, 0.021143487, 0.007031054, -0.009204968, 0.012853883, 0.18162128, -0.2486343, -0.04592132, 0.08289061, -0.14797406, -0.27622575, 0.1034874, 0.034098428, 0.1792796, 0.19107537, -0.027941909, -0.19490924, -0.17382146, 0.15154967, 0.17617738, 0.0013729016, -0.012897402}, 
{0.056284416, 0.14698826, 0.18633586, -0.15558678, 0.03331711, 0.066271186, 0.07103699, -0.07410106, -0.0006278997, -0.35262707, -0.17556651, -0.116155565, -0.022339918, 0.118904606, -0.22138582, -0.14673242, 0.057142124, -0.116393164, 0.18788306, -0.02148706, -0.14592613, 0.1715441, 0.11427627, 0.15538044, 0.39872468, -0.025968453, 0.100325786, -0.14692359, -0.101624355, -0.052693404, -0.11144796, -0.09429234}, 
{0.16142595, -0.03095611, 0.07262838, -0.013352378, -0.138199, 0.194534, -0.19946711, -0.09149325, 0.08598248, -0.016198447, 0.0914236, -0.006007895, 0.15214068, 0.18905608, 0.17436485, -0.10842804, -0.22438245, -0.12571123, -0.08323085, 0.15334828, -0.12487317, -0.13265592, -0.078913495, 0.06353728, 0.33339828, -0.109943114, -0.123169646, 0.15557405, -0.110999756, 0.2460832, -0.12084028, 0.034631267}, 
{-0.25792834, 0.27263394, -0.04558357, 0.17982675, 0.18252242, 0.11624316, 0.14062268, 0.10689263, -0.15162557, -0.103124514, 0.1929867, 0.11544292, 0.18569943, 0.193659, -0.040041205, 0.12599045, 0.0075623104, 0.108075626, -0.079628244, 0.15074311, -0.12669766, 0.18498439, 0.025098298, -0.043186594, 0.20860024, -0.055301614, 0.13636982, 0.073542595, 0.042244412, 0.050668973, 0.20327535, 0.18424407}, 
{0.43173563, -0.23061764, 0.0009913212, -0.074991204, -0.15305285, 0.18088351, -0.06925844, 0.024307994, -0.025966715, 0.09978342, 0.15108386, 0.026930664, 0.07951685, -0.2424989, 0.34678087, -0.09753414, 0.2411393, 0.026682673, 0.06084076, 0.17129919, 0.28406972, -0.17407934, -0.033894457, -0.25325045, -0.22101888, -0.07273526, -0.024632456, 0.30548954, 0.23855802, 0.11260831, -0.12004216, -0.11253407}, 
{0.005738853, -0.10514579, 0.13936314, 0.09657389, 0.15788643, 0.21304996, -0.05123954, 0.10072273, -0.36144903, 0.052488364, -0.06983571, -0.19837019, 0.013881743, -0.26226458, 0.43727866, -0.21204259, 0.06456123, 0.14062983, 0.1199514, -0.17548281, 0.21497473, -0.2105754, -0.02337946, -0.33134192, -0.12153559, -0.106163934, -0.0532013, 0.32432693, -0.17039214, 0.050075624, 0.06985067, -0.026807413}, 
{-0.47623283, 0.008987334, 0.09497618, -0.13236068, 0.036682125, 0.0736894, -0.22609541, 0.07463322, -0.2788664, 0.30824116, 0.016586572, -0.1609454, 0.14027216, -0.11561234, 0.20460929, -0.09860362, 0.21978329, -0.054619323, -0.1905506, -0.095176995, 0.3648755, 0.03169003, 0.04420287, 0.16460527, -0.27953422, 0.23608059, 0.110040955, 0.24112815, -0.017685786, 0.07534992, 0.07044059, -0.00032272935}, 
{-0.194549, 0.2917055, -0.07300236, -0.071406424, 0.012085953, 0.11093637, -0.032830164, 0.026927005, -0.2559267, 0.43443584, 0.08293772, -0.12398451, 0.12459785, -0.25301608, 0.14168422, 0.11122826, 0.16894515, 0.23006345, 0.08724601, -0.14301339, 0.07290918, 0.11904293, 0.02537152, -0.2100537, 0.019678669, -0.1999284, -0.014353597, 0.3207793, -0.037373416, 0.054372616, -0.0041973004, -0.20256758}, 
{-0.1951183, 0.3453612, 0.3134638, -0.18153779, -0.21339707, -0.16232942, 0.17126958, -0.18363197, 0.116913475, 0.1568245, -0.15678877, 0.0677627, -0.009597035, -0.20556143, 0.13811459, -0.15196684, -0.014516477, 0.18979967, 0.23124205, 0.1386369, 0.21767932, 0.08808303, -0.087262884, 0.09970222, -0.0028330598, -0.04766041, 0.08038588, 0.09645647, -0.0520708, 0.029620456, 0.17033418, 0.09998521}, 
{0.028369233, -0.28442106, -0.107855104, 0.07528758, -0.072399095, -0.08598132, -0.2284802, -0.28089896, 0.23161753, -0.1366453, -0.0867081, 0.12791708, -0.109247796, 0.060876273, -0.278145, 0.01211898, -0.083055355, 0.028350087, 0.1836573, -0.064008996, -0.2918456, 0.0704619, 0.29353452, 0.10544074, 0.051827468, -0.050273295, -0.20800133, -0.14677072, 0.34684634, -0.010615012, -0.2099074, 0.16278008}, 
{-0.13395604, -0.20803757, 0.07365612, -0.0052850824, 0.08416011, -0.06340348, 0.16504024, -0.015046986, 0.38032955, -0.06273154, 0.023649633, -0.015598448, -0.040229615, 0.33546236, -0.23867846, -0.1717007, -0.38768953, 0.040428318, 0.16010827, 0.021204315, -0.18567137, 0.09448621, 0.28675687, -0.040092386, 0.34185883, 0.26280916, 0.11383247, -0.22551091, 0.06550079, 0.068289444, 0.17887774, -0.08657645}, 
{-0.19592734, 0.19609272, -0.07691525, 0.2000943, 0.14771628, 0.16100974, 0.09751066, -0.11565468, 0.12556353, -0.22375691, 0.13070336, -0.06291425, -0.19530368, 0.29544201, 0.018517137, -0.10256788, -0.1606505, -0.046034016, 0.18073958, 9.687054e-05, -0.2254568, 0.18403709, 0.006916388, 0.3598731, 0.39921638, 0.14635357, 0.059093352, -0.08196721, 0.25385144, -0.03307995, 0.06336326, -0.1924978}, 
{-0.15165046, 0.06596297, -0.18175754, -0.06317476, 0.10718404, 0.121090636, -0.11959711, 0.076448366, -0.02268057, -0.14508481, 0.10533279, 0.15959111, -0.038955342, -0.10674354, 0.05603645, -0.06956117, -0.13190645, -0.088452324, 0.05617242, -0.13570471, -0.3000308, -0.08407119, 0.26432648, 0.27959925, 0.54589343, 0.50887716, -0.17245093, -0.07340204, -0.069966584, -0.14731565, 0.07172512, -0.15960674}, 
{-0.1484062, 0.032833718, 0.07546741, -0.15726636, -0.088926345, -0.1051144, 0.07279878, 0.036398225, -0.10315215, 0.26860204, -0.012246519, -0.18287659, -0.15505964, -0.010796824, 0.065049686, -0.19149217, 0.11564719, 0.23969507, -0.1489452, -0.14841668, 0.13830093, -0.002529204, 0.13816291, 0.16163364, -0.15565602, 0.021594081, 0.094520345, 0.1559873, 0.10719521, -0.09941711, -0.12565841, 0.1617175}, 
{0.29022098, -0.16900206, 0.08004811, 0.071958385, 0.1894725, 0.19778185, -0.15409306, 0.28287426, -0.22959027, -0.03186436, 0.122944504, 0.06939477, -0.09114836, 0.12792367, 0.3429825, 0.19969457, 0.43640867, 0.13432816, -0.09269038, -0.15940079, 0.060674407, 0.07749316, -0.15716453, -0.27526942, -0.30051568, -0.28985125, -0.14567025, 0.07767374, 0.24665807, 0.24639022, 0.20467272, 0.1903753}, 
{0.17445236, -0.32910845, 0.27393693, 0.15199341, 0.0236523, 0.080780685, 0.05317154, 0.05894653, -0.0010312075, 0.15278989, -0.09412633, 0.009179125, -0.18709356, -0.20331708, 0.026597613, 0.16438028, 0.42868927, 0.16075778, -0.12328295, -0.105259724, 0.44141063, -0.15984772, 0.013036137, -0.25132245, -0.08652824, -0.2920435, -0.15104824, 0.24205753, -0.17135203, -0.11731329, -0.05918262, 0.13329422}, 
{-0.11436017, -0.112810634, -0.0041732877, 0.15456612, -0.101076774, -0.1791114, 0.15690458, 0.07276216, 0.144723, 0.118840866, -0.19355159, -0.07260938, 0.030289825, -0.0184978, 0.005470076, -0.19708917, 0.045053147, -0.018707938, 0.16055086, -0.1822264, 0.0774467, -0.085364535, 0.15488964, 0.033919323, -0.100764975, 0.3747546, 0.10147862, 0.0337898, 0.15748763, -0.14653362, 0.026513034, 0.19254753}, 
{-0.42029828, 0.527924, -0.09994429, -0.11557193, 0.19468749, 0.2144669, 0.073646046, -0.13320671, -0.22941329, 0.43406826, -0.19379887, 0.055067427, -0.01480173, 0.13413073, 0.06164885, -0.14494295, -0.21086355, -0.065877795, 0.20164077, -0.21793333, 0.16695552, 0.16971025, 0.23195216, -0.2026725, -0.1311964, 0.0007165957, 0.06635882, 0.21138072, 0.0024959422, 0.18319735, 0.022043608, 0.19853222}, 
{-0.33654597, 0.43885046, -0.102684595, 0.16002195, 0.25429595, -0.09031109, 0.087165095, -0.3399611, 0.0013955495, 0.20884387, -0.11346427, 0.1244547, 0.20158336, -0.06522881, 0.0031402793, -0.0070075095, 0.010771331, -0.031185769, 0.2626412, -0.22107798, -0.04888687, -0.1959632, 0.10186024, -0.016853772, 0.09646908, -0.21421766, 0.16906492, -0.042535257, 0.13357896, 0.12113657, -0.14744453, -0.031989172}, 
{-0.026558846, -0.3259846, 0.3032293, -0.090571, -0.08751332, -0.050904978, 0.12013082, 0.13006902, 0.042570222, -0.058646232, 0.050404787, -0.10297391, -0.1294144, 0.12951648, 0.0042002033, 0.19262838, 0.1052808, 0.2257627, 0.1298854, 0.1841949, 0.1448023, 0.11546549, -0.10873775, 0.2882633, 0.23550475, -0.016514404, -0.00078225636, 0.029293431, -0.11822541, -0.0012595878, -0.09158613, 0.0445292}, 
{-0.1604968, -0.47745886, -0.01239361, -0.12107583, 0.0520728, -0.1834206, 0.14263208, -0.0031497711, 0.14316186, -0.04400226, -0.15217479, -0.07812437, 0.023353742, 0.1807506, 0.08400749, -0.021436155, -0.18312895, 0.24932215, -0.052007325, 0.098781995, -0.28804982, -0.1334466, 0.19962212, 0.22852375, 0.3208404, 0.4074237, 0.13821982, -0.17722315, 0.106371775, -0.057261135, -0.018672502, -0.08611582}, 
{0.09044954, -0.030566534, 0.020345204, -0.065365724, -0.19128017, 0.13800058, -0.0053651817, -0.42147323, 0.45177636, -0.24887356, 0.13278219, 0.14107962, 0.1461474, 0.42622837, -0.38878593, 0.15362784, -0.5512826, 0.28181517, 0.30272916, 0.13079014, -0.4515161, -0.02619648, 0.47616842, 0.21967523, 0.5609007, 0.55485076, 0.041924316, -0.16217975, 0.3553397, 0.09161851, 0.18094577, 0.061735243}, 
{0.47396147, 0.31415498, -0.05431373, -0.17183685, 0.054742947, 0.29121542, 0.09714699, -0.26798463, 0.27428442, 0.018088592, 0.19325987, -0.12674956, -0.10059622, 0.27975702, 0.010302286, -0.097077884, -0.061322674, -0.062810004, 0.01326272, 0.015786588, -0.30785704, -0.18488215, 0.006997997, -0.033826813, 0.2061357, 0.39427426, -0.08797507, -0.041385308, 0.4101624, 0.03127533, -0.0804841, -0.15117204}, 
{0.09612733, 0.06547728, -0.4414843, 0.12188719, 0.2518317, 0.02566587, -0.08306822, 0.07370143, -0.10704621, 0.20950922, -0.10606963, 0.007983335, -0.0385428, 0.030794883, 0.1769494, 0.017949492, 0.24397424, -0.09073475, -0.4777109, 0.1865399, 0.17096472, -0.18742207, -0.22762974, -0.31590492, -0.41598463, -0.24380425, -0.0285399, 0.041593496, 0.18024214, 0.26129773, -0.090484105, -0.038693532}, 
{0.4272307, 0.11570608, -0.09799407, -0.046536837, 0.3510942, 0.2896093, 0.058331583, -0.09498942, 0.12939644, -0.17105733, -0.12162539, 0.03578291, -0.012760976, 0.10771423, 0.26356003, 0.07739663, 0.050396882, -0.3093851, -0.30475143, 0.13944918, 0.3526775, -0.07982589, 0.13610005, -0.12681057, -0.038850732, -0.17681673, 0.17692098, -0.15890819, 0.28181836, 0.15239175, 0.020438502, 0.14199755}, 
{0.5504649, -0.28828463, -0.104117565, -0.13279076, 0.26937518, -0.07848946, 0.17916332, 0.24250284, -0.00070739316, -0.0044424813, -0.07510683, -0.17450495, -0.20674613, -0.16420414, 0.2813028, 0.17344272, 0.22041102, 0.07552329, -0.071347274, 0.11623029, 0.35013092, -0.19114336, 0.03885217, -0.15799701, -0.44200823, -0.11713726, -0.21432082, 0.18941331, 0.05989684, 0.202358, -0.18987265, 0.07737559}, 
{-0.055473965, -0.18985364, -0.16674763, -0.21672547, 0.145002, -0.025035368, -0.19931205, 0.013462362, -0.20454833, 0.40010592, -0.027512535, -0.020862123, -0.13759632, 0.26120073, -0.24120115, -0.16948204, 0.20518363, -0.21912104, -0.21171361, 0.14073521, 0.12259567, -0.036153555, -0.08643522, -0.09533464, -0.14794566, 0.11271865, 0.051042404, -0.07332296, 0.44440773, 0.21844505, -0.17835674, 0.008953929}, 
{-0.35521108, 0.3766087, -0.020739999, -0.032904048, 0.014097681, 0.0017016563, -0.13317399, -0.026358014, -0.16189416, 0.5400545, -0.014299318, -0.10760727, -0.070106424, 0.22319105, -0.025051387, -0.0877514, 0.15371911, 0.013395602, -0.018791404, 0.036634088, 0.12781948, -0.06389235, -0.019076029, -0.10758302, -0.2662258, -0.17671376, 0.14742321, 0.06609764, -0.0054115583, -0.07568546, 0.011486587, -0.15115166}, 
{-0.70408297, 0.48333997, 0.10056097, 0.108149216, -0.11791396, 0.31953534, 0.15848304, 0.17308722, 0.054618128, 0.27510917, 0.14950195, -0.16680895, -0.047586303, -0.07729918, 0.39759365, 0.09731057, 0.06536237, -0.0830893, -0.2957107, 0.18842429, 0.050562155, 0.086060524, 0.10038231, -0.027840553, -0.08983365, -0.51827824, 0.10932209, 0.22355738, -0.1426178, 0.2526617, 0.005627475, -0.1009083}, 
{-0.18768938, 0.21585247, 0.014443126, 0.06524114, -0.20048515, -0.14327955, -0.23008923, 0.14786904, -0.05214158, 0.104879335, 0.12344688, 0.025923058, 0.14030924, -0.21600142, 0.17378676, -0.03308581, 0.08161303, 0.005074514, 0.24272484, -7.0152266e-05, 0.118451916, 0.12354258, 0.16950276, 0.20574543, -0.18921714, -0.055139184, -0.04368654, 0.119824335, 0.14387639, 0.11781662, 0.099617064, 0.13600627}, 
{0.24640144, -0.79473954, 0.36174697, 0.032276634, -0.36134335, 0.17560734, -0.0065319627, 0.26802364, -0.33083904, 0.118419856, -0.07810399, 0.11024916, 0.18509167, -0.20236708, 0.30297983, -0.11525617, 0.15860756, 0.26673838, -0.04305133, -0.13984941, 0.12887874, -0.20470609, 0.05208898, -0.046499535, -0.31484938, 0.21851999, 0.025433805, 0.156212, -0.3315346, -0.31270278, 0.07787777, 0.042057335}, 
{0.1543707, -0.40525207, 0.24973148, 0.02817549, -0.18067516, -0.15780525, 0.21443582, -0.30024353, 0.4485469, -0.7619975, -0.007551104, -0.25283575, -0.07607252, -0.22874504, -0.4177491, 0.2103402, -0.64093214, 0.47379038, 0.5702967, -0.16482289, -0.44159925, -0.20443481, 0.483196, 0.7056265, 0.2886893, 0.5231405, 0.06647346, -0.08993008, -0.015417938, -0.43613586, -0.21242432, 0.050412357}, 
{0.12183803, 0.4124257, -0.2470777, -0.02840879, 0.057715695, 0.0602774, 0.12542553, 0.06672957, 0.041505013, -0.044716705, -0.19848438, 0.0037695996, -0.061817992, 0.07033293, -0.04213816, -0.015138954, 0.13001522, 0.030718971, -0.21019672, -0.15596512, -0.18000151, -0.024066702, -0.17936446, -0.07578546, -0.013475779, -0.21108486, 0.0387139, 0.086658016, 0.3526262, 0.027671283, -0.025320008, 0.06045407}, 
{0.3465592, 0.4115728, -0.502412, 0.054610737, 0.28778017, 0.2190651, 0.04496021, -0.47868186, -0.15326428, 0.30296224, -0.08602762, -0.008466611, 0.0917441, 0.61437476, -0.27304417, 0.049028963, -0.20788486, -0.2900257, -0.34536344, -0.028087791, -0.27442712, -0.14527534, 0.39067852, -0.32751513, -0.23472258, -0.009197653, -0.09695424, -0.54815507, 0.67575127, 0.41626754, 0.02907596, -0.055263937}, 
{0.5138215, 0.012188156, -0.29065078, -0.21621266, 0.19670586, 0.06387492, -0.120745264, 0.050701134, -0.17533723, -0.13299102, 0.01925829, 0.0022059772, -0.17757842, 0.22490239, -0.10785804, -0.19173534, 0.1661846, -0.081930704, -0.14455032, 0.13649902, -0.0405128, 0.008198634, -0.09216202, -0.24756773, -0.3336898, -0.1978859, 0.0038355098, -0.16894719, 0.46506083, 0.39170256, -0.06840857, 0.09806475}, 
{0.37280872, -0.1174237, 0.08650846, -0.06404267, 0.040790446, -0.068785354, -0.1522745, 0.008150675, -0.16023912, 0.1730967, 0.19521716, 0.16112733, 0.01843576, 0.1142728, -0.086445, -0.14375147, 0.13007078, 0.09010944, -0.22255787, 0.06951791, 0.038608465, -0.06447558, 0.11990717, 0.019390963, -0.09841436, -0.00093684, 0.03937394, -0.034634586, 0.23823835, 0.17021188, 0.061099343, -0.082173005}, 
{0.049426217, -0.15601438, -0.16728187, -0.028394412, 0.3913896, 0.035260543, 0.12936269, 0.009077611, -0.17438208, 0.40923452, 0.05126685, -0.16961849, -0.008338561, 0.39695174, 0.05813718, 0.09476033, -0.13096364, -0.2995015, -0.12509392, 0.041003697, -0.04642655, -0.1768384, 0.20490327, -0.22061032, -0.29394737, 0.19640672, -0.02019585, -0.13628928, 0.1425351, 0.22138256, -0.20451099, -0.025753736}, 
{-0.077533424, -0.14258125, -0.2868659, -0.17116968, 0.13153322, 0.30354813, 0.044542998, 0.050624393, 0.01676742, 0.606856, 0.064836085, 0.12225145, -0.17010093, 0.06807904, 0.1988065, -0.046730727, 0.065523535, -0.23245296, -0.07669368, -0.15898307, 0.1356329, -0.022195011, -0.1793592, 0.019013295, -0.35446063, 0.12425035, 0.18176359, -0.24240479, 0.24082252, 0.19475146, 0.09936446, -0.09688909}, 
{-0.5776087, 0.644283, -0.0048537673, -0.14418061, -0.024161126, -0.046678692, -0.013056091, 0.12719719, -0.11922084, 0.4306199, 0.04985419, 0.0061121383, 0.029614622, 0.21596943, 0.18911183, 0.20087546, 0.18875042, 0.1112634, 0.05970688, 0.16087805, 0.3548737, 0.04257691, -0.05069038, -0.08205945, -0.41597158, -0.042701274, -0.09348073, 0.15911743, -0.056491327, 0.21573, -0.15342954, -0.120110326}, 
{-0.8766428, 0.44913575, 0.49140474, -0.15971681, -0.36016133, -0.051963918, 0.15954502, 0.16190146, 0.043241043, 0.09027004, 0.20604259, -0.19629219, -0.18229264, -0.42432588, 0.3523777, 0.11829984, -0.049830418, 0.4363266, 0.13507602, 0.07565879, 0.39686728, 0.09344301, -0.21103096, -0.05531727, 0.054585487, 0.25411212, 0.113062575, 0.48113218, -0.50853294, -0.39199653, -0.05462136, -0.14221694}, 
{-0.38641414, -0.45048964, 0.6771865, -0.095852785, -0.477676, -0.44589165, -0.169597, 0.037758384, 0.3281514, -0.28774184, 0.0077370405, 0.1288045, 0.058678117, -0.294273, -0.17715009, 0.07116291, -0.3190802, 0.515145, 0.5090692, 0.05056368, -0.22473659, 0.07431042, 0.2930401, 0.55986565, 0.1647285, 0.41272774, -0.17199075, -0.027838409, -0.39672968, -0.5249804, 0.009161232, -0.19058265}, 
{0.12533727, -0.6212692, 0.7572741, -0.04665737, -0.4888858, -0.3840061, 0.028844235, -0.17527837, 0.53299004, -0.66381013, -0.08388738, 0.02790135, 0.2024194, -0.40369126, -0.0016421219, -0.17628053, -0.21195202, 0.5838301, 0.61276555, -0.18171889, -0.22321515, -0.038573667, 0.38239312, 0.3633316, 0.40345135, 0.59013796, -0.0913824, -0.010699874, -0.51601714, -0.23230888, 0.036892496, 0.045819014}, 
{0.12810354, 0.1989437, -0.21073796, 0.023674801, 0.010476563, 0.2840836, -0.084765725, -0.13918112, 0.13696186, -0.39930373, 0.03281787, 0.08199722, -0.10236082, 0.4574986, -0.2912553, -0.15396947, -0.38361675, 0.13868582, -0.10479432, -0.22433166, -0.22662029, 0.18333614, 0.3502646, 0.30823898, 0.12564571, 0.25454393, 0.17582977, -0.074111834, 0.22535318, 0.1692934, 0.029922353, -0.10551425}, 
{0.4104539, 0.34149253, -0.30027172, 0.17354111, 0.049346544, 0.11986039, -0.11939204, -0.2545379, 0.027126016, -0.5806963, 0.10157785, -0.2179568, -0.0779653, 0.32401913, -0.12807815, -0.13989422, -0.31301966, -0.16255811, 0.018209718, -0.024376774, -0.30075935, -0.20197926, 0.11005115, 0.31564182, 0.23696604, 0.01203888, 0.12412534, -0.19903624, 0.38247678, 0.42402264, -0.14566767, 0.057352573}, 
{0.2959829, 0.0649845, -0.3686285, 0.094339214, 0.30095857, 0.13336134, -0.22456244, -0.17452486, -0.030878942, -0.021415917, -0.20880908, -0.14266402, -0.040669374, 0.3130307, 0.16263254, -0.17724413, 0.03908952, -0.23192513, -0.11199002, -0.07805142, 0.13522755, 0.1583257, -0.14492935, -0.14571877, -0.18739994, 0.053589564, 0.09590274, -0.115646295, 0.47956508, 0.27013826, 0.17878345, -0.19179013}, 
{0.2834662, 0.0359444, 0.08754625, -0.20628537, 0.21052738, 0.10809442, 0.009272924, -0.06570334, 0.040852327, -0.050486125, 0.0209717, 0.13903284, 0.11693479, 0.15458359, -0.05142807, -0.07180989, -0.015599226, 0.10184062, -0.25783265, -0.19236973, -0.13056071, -0.05251026, 0.06726011, -0.005904748, 0.05938389, -0.27582318, 0.05300648, 0.045606304, 0.19358586, 0.31955, 0.027017504, -0.06591557}, 
{0.46962216, -0.26828247, -0.13845877, 0.12612577, 0.08104934, 0.34849435, 0.12280611, 0.07413531, 0.012356727, 0.33103746, 0.025550157, 0.20839973, -0.07881043, 0.085177206, 0.12676014, 0.02081561, 0.039700747, -0.053794913, -0.2738661, -0.06189432, -0.033034865, 0.029691309, 0.1689956, -0.09790167, -0.32434335, -0.25416875, -0.10493568, -0.056840103, 0.35366154, 0.14184487, 0.19937013, 0.045399666}, 
{-0.041767694, -0.08101702, -0.041411616, 0.043023936, 0.3666559, -0.06916089, -0.182612, -0.17833304, -0.10619864, 0.34813368, 0.07897386, 0.120550565, 0.13268125, 0.4381153, 0.10097458, -0.039939657, 0.30765605, -0.004260997, -0.21623494, 0.1346927, 0.26942417, -0.11566023, -0.07361258, -0.18562227, -0.32623506, 0.10990457, -0.08632241, -0.016240584, 0.4289611, 0.37636927, 0.046597574, -0.17778243}, 
{-0.081364974, -0.09792775, -0.11312041, 0.15631542, -0.06253688, 0.11930428, 0.15998171, -0.03415788, -0.16072552, 0.46667448, 0.17252207, -0.15115279, -0.14657108, 0.10385271, 0.12412298, -0.18482065, 0.40455568, -0.13127214, -0.19089274, 0.012027315, 0.17712985, -0.076980725, 0.054509073, -0.09961758, -0.44585386, -0.17832541, 0.066137016, 0.18420534, 0.30175468, 0.366128, 0.15956736, 0.07744518}, 
{-0.65815216, 0.4393822, 0.25284478, 0.18696468, 0.022443179, 0.0714367, -0.10255921, 0.019346446, -0.0578616, 0.28132865, -0.15286075, -0.13966826, -0.17065823, -0.22246246, 0.08048213, 0.050588638, -0.13518767, 0.15334542, 0.08497672, 0.17785144, 0.11032246, 0.060656607, 0.1953598, 0.34337902, 0.28557557, 0.029440971, 0.008613767, 0.061641388, -0.17348124, -0.10004144, 0.013779065, -0.11120321}, 
{-0.33191937, 0.22343476, 0.15549856, -0.21599647, -0.23158397, -0.2093223, -0.14329953, -0.499663, 0.22548255, -0.2584847, -0.042853236, -0.049014587, -0.206941, 0.032575194, -0.29047891, -0.16056277, -0.6735268, 0.005256578, 0.36555102, -0.05053809, -0.33547786, 0.10929644, 0.2526406, 0.6297547, 0.40659824, 0.465711, -0.16752343, -0.053279288, 0.13865942, -0.16504844, -0.09622046, 0.12290344}, 
{0.09685668, -0.35948348, 0.29500774, -0.18694238, -0.29167914, -0.104949586, 0.1825173, -0.16973697, 0.204497, -0.10229711, 0.005778879, -0.021520788, 0.08612606, -0.38245037, 0.01630446, 0.19997981, -0.15258679, 0.4186034, 0.24547966, 0.16877864, 0.1268945, -0.20234205, 0.07620023, 0.15459836, 0.35726634, 0.46801397, -0.1385858, -0.048859857, -0.27460054, -0.12202366, -0.0018851979, -0.108023934}, 
{0.30003363, -0.21485336, -0.069538355, -0.16736662, 0.00051634765, 0.24825913, 0.100011535, -0.14505956, -0.19475324, 0.22262776, -0.0009948164, -0.09771578, -0.19007966, 0.06024671, 4.6305955e-05, 0.102719665, -0.1666947, 0.1262755, -0.15112849, -0.09006235, 0.05186943, -0.062074825, 0.22870573, -0.07003512, -0.19907829, 0.07130667, 0.14782387, -0.050681647, -0.01777938, 0.00027838486, 0.16192909, 0.16423362}, 
{0.089344606, 0.625424, -0.5473016, 0.030067567, 0.10026024, -0.034348562, -0.15432255, -0.22764103, 0.24661046, -0.31905374, 0.12978694, 0.05763562, -0.1877165, 0.5997666, -0.17107783, 0.14045146, -0.44317362, -0.0904229, 0.015968133, 0.0692805, -0.30504587, -0.06463097, 0.3013121, 0.13640596, 0.31223798, 0.4054121, 0.07561945, -0.29088658, 0.44971842, 0.46179503, 0.16296852, 0.08477074}, 
{0.2090791, 0.20281018, -0.16414319, -0.09292095, 0.21704859, 0.24595526, 0.13254467, -0.083679944, 0.15172718, -0.032001846, 0.078391224, -0.07211809, 0.1368061, 0.3084253, 0.039782323, 0.12931272, 0.105981596, -0.01287527, 0.012605964, -0.03713358, 0.12821706, -0.09156729, 0.046968814, 0.116719395, -0.2353845, -0.073335476, -0.22190988, 0.045676026, 0.26703653, 0.03646308, -0.028183741, -0.13114208}, 
{0.3175054, 0.07028513, -0.13645548, -0.10474829, 0.09933563, -0.020062806, -0.055098638, -0.037054334, 0.26947314, -0.029166926, -0.09458421, -0.015757995, -0.026678368, 0.17309673, -0.19714296, -0.20871879, -0.06808518, 0.08355291, -0.17889345, -0.023506295, 0.09241541, -0.07227972, 0.18774834, 0.09789583, 0.07665523, -0.096656226, 0.058694616, -0.055010404, 0.28917554, 0.12707815, -0.21291953, 0.06468272}, 
{0.26417917, -0.117186435, 0.051527966, -0.14116429, 0.042084437, 0.29673287, -0.20833085, -0.10070059, 0.2032355, 0.3110179, 0.04631281, 0.17853741, 0.0822101, 0.17738725, 0.14121348, -0.14950341, 0.15754822, 0.05496923, -0.24644348, 0.07748892, -0.09548287, -0.12723944, -0.07573678, 0.15588982, -0.11503293, 0.05011006, 0.010183124, 0.018892607, 0.4162345, 0.26193735, -0.08054994, -0.05062209}, 
{-0.032836925, -0.45940572, 0.03711394, -0.10188515, 0.2910273, 0.034113873, -0.025232663, -0.04981535, -0.078711614, 0.36754945, -0.15416172, 0.074429914, 0.11575339, 0.2843949, 0.028666202, 0.00068956614, 0.14908455, -0.12576215, -0.1377447, 0.16515367, 0.106886394, 0.038808465, 0.21877226, 0.067353286, -0.2572789, -0.16339433, 0.07700182, -0.21945223, 0.41150403, 0.15430358, 0.067024074, -0.14111172}, 
{-0.36120328, -0.04981755, -0.09933786, 0.08622417, 0.03174966, 0.22019196, 0.1547494, -0.056709982, 0.086610384, 0.4427029, -0.08177002, -0.015707914, -0.11342986, -0.12627739, -0.08488417, 0.080646336, -0.12590018, 0.03677274, 0.02183179, -0.14317037, -0.1679455, -0.10950439, 0.16987298, -0.047487337, 0.16837564, 0.14733975, 0.03824187, -0.09760513, -0.06844738, 0.2536898, -0.1710828, -0.045702413}, 
{-0.7575417, 0.38771886, 0.19183443, 0.18615036, -0.23444556, -0.083165966, 0.043270767, -0.035755627, 0.2124194, 0.2540536, 0.09398317, -0.17008945, -0.17580433, 0.042415462, -0.22624558, 0.06754571, -0.26378536, 0.14998133, 0.30413127, 0.030535959, 0.0029298856, 0.16057757, 0.014660141, 0.2018045, 0.31721288, 0.28218117, 0.031189227, 0.1282749, -0.14105766, -0.06463023, -0.14772663, -0.08378908}, 
{-0.43961635, 0.29385036, 0.34665883, 0.05673383, -0.054169003, -0.24943055, 0.10653604, -0.21532401, 0.5564105, -0.14591135, 0.14985836, 0.072038114, -0.07222801, -0.21000715, -0.43625513, -0.11128596, -0.40890345, 0.518974, 0.4845421, 0.050533608, -0.47199807, -0.18777876, 0.327197, 0.58880013, 0.29733506, 0.5223454, -0.09041484, 0.057839602, 0.05564048, -0.24532254, 0.19252615, 0.001958564}, 
{-0.4617712, -0.17104727, 0.074033536, -0.08833478, -0.3388581, 0.014391082, -0.02870837, -0.08774361, 0.28293356, -0.46533674, 0.15353325, -0.0380863, 0.07648083, -0.09317344, -0.030584702, -0.08254728, -0.31849912, 0.45447102, 0.40744013, 0.14151335, -0.13182203, -0.17115921, 0.22479452, 0.28868636, 0.14815372, 0.6083556, -0.05041656, 0.1831054, -0.1239174, -0.10359242, 0.1845493, -0.097914405}, 
{-0.06721837, 0.03669767, 0.099851936, 0.18087971, -0.031501148, 0.09147853, -0.014351705, -0.16955148, 0.13919476, -0.13259141, 0.12094268, 0.16061218, -0.07178496, -0.2063798, -0.090405606, 0.046237916, -0.20471181, 0.34122318, 0.26147947, 0.04772157, 0.23790625, 0.11855891, 0.111952655, 0.25336343, 0.2646248, 0.12949924, 0.10103071, 0.22827283, -0.12237718, -0.14495154, -0.18153176, -0.11294747}, 
{-0.24605705, 0.63543373, -0.32811257, -0.017331474, 0.35779175, 0.2952607, -0.07141025, -0.1968687, -0.01987886, -0.15303522, 0.12191662, 0.14210851, -0.054460343, 0.26337, -0.17581978, 0.2029633, -0.13206288, -0.28191158, -0.019464111, -0.033552933, 0.060312394, 0.20132777, 0.2997399, -0.07151321, -0.08388613, -0.0062432983, 0.14786087, -0.3520069, 0.40231967, 0.08628883, -0.13051806, 0.0068676323}, 
{0.27083433, 0.20110863, 0.016174497, -0.17493027, -0.039003413, 0.142653, -0.12051499, -0.055141658, 0.0062801614, 0.015288893, -0.12323465, -0.074532226, 0.011179586, -0.02606181, 0.23592472, -0.21194829, -0.10814723, -0.033415973, 0.066136174, 0.059352424, 0.29713613, 0.016909644, -0.06703654, -0.19232266, -0.17346591, 0.041036833, 0.08429683, -0.18359447, 0.30979547, 0.17018612, -0.120801166, 0.16445816}, 
{0.34469718, 0.0005549065, -0.2292935, 0.11649347, 0.20651768, 0.29772702, -0.2248004, -0.07332892, 0.059889082, -0.07085119, 0.08164406, -0.036162034, 0.02685663, 0.23026109, 0.1307525, 0.18599102, -0.06332808, -0.19536562, -0.10129729, 0.11457025, 0.16313161, -0.1277026, 0.14097671, 0.047409687, 0.10664594, -0.15412435, 0.043837115, -0.071336046, 0.47638342, 0.27610174, -0.20880954, 0.014888197}, 
{0.045620304, -0.033003934, 0.019390887, 0.101804204, 0.2589046, 0.18248162, 0.1268567, 0.13744806, -0.07903281, 0.036255486, -0.092456885, -0.10853577, -0.0030308913, -0.04814301, -0.11373827, 0.19281164, 0.058186103, 0.061610684, -0.22145249, -0.014430912, 0.05741933, -0.18176733, 0.06732391, -0.22527127, -0.21895382, -0.036601607, 0.002860217, 0.079983756, 0.34419474, 0.33307388, -0.13766013, 0.16658476}, 
{0.13277474, -0.23405309, 0.020700485, 0.12121488, 0.1236381, 0.15050818, 0.05229229, 0.25706598, -0.23454386, 0.20364794, 0.07413164, -0.007296334, 0.0045548514, 0.12368528, 0.16707417, -0.15011063, -0.0045650927, 0.07660188, -0.053836554, -0.17630658, 0.051710654, 0.0065820515, -0.24395181, -0.26013434, 0.08579463, -0.046486158, -0.046239957, -0.022173433, -0.07527483, 0.16318299, -0.20566452, 0.025887072}, 
{-0.17019932, -0.01872832, 0.15499976, 0.15874536, 0.14620692, 0.061969798, -0.18295842, 0.12991935, -0.0068067545, 0.15908112, -0.14643078, -0.18087845, -0.13526015, -0.02525932, -0.022311777, 0.00055868924, 0.24770345, 0.24884, -0.021416213, -0.09818897, 0.31473958, -0.16590719, -0.03793387, 0.16586603, -0.22498952, -0.04625135, -0.0975899, 0.23425785, -0.13650249, 0.058915388, -0.12390555, 0.115229726}, 
{-0.1458801, -0.031922482, 0.15865304, 0.13587843, -0.08643146, -0.16629113, -0.0971126, 0.052485753, 0.02419946, 0.28334165, 0.18244395, -0.1664683, 0.08090391, -0.28959838, 0.17269522, -0.158531, 0.09819608, 0.30923292, 0.17423473, -0.1574865, 0.046898298, 0.00013434887, -0.23924671, 0.07939392, 0.2393575, 0.016528869, 0.08026004, -0.0029322165, -0.25950027, -0.11073602, 0.111135796, -0.065999195}, 
{-0.17453013, 0.0008581282, 0.28805804, -0.040361784, -0.14475213, 0.10137443, 0.03973903, 0.30170006, -0.028991753, 0.1629268, -0.18308146, -0.059581693, -0.14441702, -0.19799629, 0.26882032, -0.041262284, 0.17682375, 0.07910778, 0.12407031, -0.1769003, 0.27799082, -0.024644762, 0.06646737, 0.30717802, 0.08346845, 0.09399874, 0.0795469, 0.35212466, -0.073951125, -0.21224403, 0.17357807, 0.087474674}, 
{-0.15692064, -0.27044037, 0.48175743, 0.036648836, -0.44473487, -0.023746723, 0.14787942, 0.11222947, -0.02731226, -0.0339523, -0.16941825, 0.18289238, -0.13206966, -0.27417016, 0.48547518, -0.16224243, 0.12019453, 0.28583637, 0.22010243, 0.116532505, 0.2971236, -0.08132911, -0.25146887, 0.15449394, -0.15345015, 0.1047578, 0.027705537, 0.47006494, -0.4406719, -0.22387438, 0.18632501, -0.12332142}, 
{-0.22462578, 0.007968748, 0.45572877, -0.0456144, -0.15504332, 0.041574806, 0.010706891, 0.31912145, -0.14753671, 0.30743417, -0.010978535, -0.14133354, 0.16074261, -0.5476556, 0.45768303, -0.026319683, 0.4091612, 0.27348596, 0.35023144, 0.17267191, 0.6219162, -0.172361, -0.108533755, -0.12727103, -0.006450256, -0.0010572812, -0.03342329, 0.26097792, -0.59938407, -0.26661432, 0.19970372, 0.16615805}, 
{-0.56822467, 0.031729106, 0.10566731, -0.13998136, 0.0964488, 0.2228819, 0.18452418, 0.42457783, -0.52456176, 0.3968364, -0.10109124, -0.010440841, 0.19958025, -0.25901437, 0.3893444, -0.05045125, 0.58959234, -0.15306458, -0.30901852, 0.08144278, 0.5935553, 0.1499947, -0.17825004, -0.3530191, -0.52346885, -0.24041201, -0.15464473, 0.22900964, -0.23733917, -0.041192718, -0.14550884, 0.030863732}}